{"learner":{"attributes":{},"feature_names":["gender","age","hypertension","heart_disease","smoking_history","bmi","HbA1c_level","blood_glucose_level"],"feature_types":["int","float","int","int","int","float","float","int"],"gradient_booster":{"model":{"cats":{"enc":[],"feature_segments":[],"sorted_idx":[]},"gbtree_model_param":{"num_parallel_tree":"1","num_trees":"1000"},"iteration_indptr":[0,1,2,3,4,5,6,7,8,9,10,11,12,13,14,15,16,17,18,19,20,21,22,23,24,25,26,27,28,29,30,31,32,33,34,35,36,37,38,39,40,41,42,43,44,45,46,47,48,49,50,51,52,53,54,55,56,57,58,59,60,61,62,63,64,65,66,67,68,69,70,71,72,73,74,75,76,77,78,79,80,81,82,83,84,85,86,87,88,89,90,91,92,93,94,95,96,97,98,99,100,101,102,103,104,105,106,107,108,109,110,111,112,113,114,115,116,117,118,119,120,121,122,123,124,125,126,127,128,129,130,131,132,133,134,135,136,137,138,139,140,141,142,143,144,145,146,147,148,149,150,151,152,153,154,155,156,157,158,159,160,161,162,163,164,165,166,167,168,169,170,171,172,173,174,175,176,177,178,179,180,181,182,183,184,185,186,187,188,189,190,191,192,193,194,195,196,197,198,199,200,201,202,203,204,205,206,207,208,209,210,211,212,213,214,215,216,217,218,219,220,221,222,223,224,225,226,227,228,229,230,231,232,233,234,235,236,237,238,239,240,241,242,243,244,245,246,247,248,249,250,251,252,253,254,255,256,257,258,259,260,261,262,263,264,265,266,267,268,269,270,271,272,273,274,275,276,277,278,279,280,281,282,283,284,285,286,287,288,289,290,291,292,293,294,295,296,297,298,299,300,301,302,303,304,305,306,307,308,309,310,311,312,313,314,315,316,317,318,319,320,321,322,323,324,325,326,327,328,329,330,331,332,333,334,335,336,337,338,339,340,341,342,343,344,345,346,347,348,349,350,351,352,353,354,355,356,357,358,359,360,361,362,363,364,365,366,367,368,369,370,371,372,373,374,375,376,377,378,379,380,381,382,383,384,385,386,387,388,389,390,391,392,393,394,395,396,397,398,399,400,401,402,403,404,405,406,407,408,409,410,411,412,413,414,415,416,417,418,419,420,421,422,423,424,425,426,427,428,429,430,431,432,433,434,435,436,437,438,439,440,441,442,443,444,445,446,447,448,449,450,451,452,453,454,455,456,457,458,459,460,461,462,463,464,465,466,467,468,469,470,471,472,473,474,475,476,477,478,479,480,481,482,483,484,485,486,487,488,489,490,491,492,493,494,495,496,497,498,499,500,501,502,503,504,505,506,507,508,509,510,511,512,513,514,515,516,517,518,519,520,521,522,523,524,525,526,527,528,529,530,531,532,533,534,535,536,537,538,539,540,541,542,543,544,545,546,547,548,549,550,551,552,553,554,555,556,557,558,559,560,561,562,563,564,565,566,567,568,569,570,571,572,573,574,575,576,577,578,579,580,581,582,583,584,585,586,587,588,589,590,591,592,593,594,595,596,597,598,599,600,601,602,603,604,605,606,607,608,609,610,611,612,613,614,615,616,617,618,619,620,621,622,623,624,625,626,627,628,629,630,631,632,633,634,635,636,637,638,639,640,641,642,643,644,645,646,647,648,649,650,651,652,653,654,655,656,657,658,659,660,661,662,663,664,665,666,667,668,669,670,671,672,673,674,675,676,677,678,679,680,681,682,683,684,685,686,687,688,689,690,691,692,693,694,695,696,697,698,699,700,701,702,703,704,705,706,707,708,709,710,711,712,713,714,715,716,717,718,719,720,721,722,723,724,725,726,727,728,729,730,731,732,733,734,735,736,737,738,739,740,741,742,743,744,745,746,747,748,749,750,751,752,753,754,755,756,757,758,759,760,761,762,763,764,765,766,767,768,769,770,771,772,773,774,775,776,777,778,779,780,781,782,783,784,785,786,787,788,789,790,791,792,793,794,795,796,797,798,799,800,801,802,803,804,805,806,807,808,809,810,811,812,813,814,815,816,817,818,819,820,821,822,823,824,825,826,827,828,829,830,831,832,833,834,835,836,837,838,839,840,841,842,843,844,845,846,847,848,849,850,851,852,853,854,855,856,857,858,859,860,861,862,863,864,865,866,867,868,869,870,871,872,873,874,875,876,877,878,879,880,881,882,883,884,885,886,887,888,889,890,891,892,893,894,895,896,897,898,899,900,901,902,903,904,905,906,907,908,909,910,911,912,913,914,915,916,917,918,919,920,921,922,923,924,925,926,927,928,929,930,931,932,933,934,935,936,937,938,939,940,941,942,943,944,945,946,947,948,949,950,951,952,953,954,955,956,957,958,959,960,961,962,963,964,965,966,967,968,969,970,971,972,973,974,975,976,977,978,979,980,981,982,983,984,985,986,987,988,989,990,991,992,993,994,995,996,997,998,999,1000],"tree_info":[0,0,0,0,0,0,0,0,0,0,0,0,0,0,0,0,0,0,0,0,0,0,0,0,0,0,0,0,0,0,0,0,0,0,0,0,0,0,0,0,0,0,0,0,0,0,0,0,0,0,0,0,0,0,0,0,0,0,0,0,0,0,0,0,0,0,0,0,0,0,0,0,0,0,0,0,0,0,0,0,0,0,0,0,0,0,0,0,0,0,0,0,0,0,0,0,0,0,0,0,0,0,0,0,0,0,0,0,0,0,0,0,0,0,0,0,0,0,0,0,0,0,0,0,0,0,0,0,0,0,0,0,0,0,0,0,0,0,0,0,0,0,0,0,0,0,0,0,0,0,0,0,0,0,0,0,0,0,0,0,0,0,0,0,0,0,0,0,0,0,0,0,0,0,0,0,0,0,0,0,0,0,0,0,0,0,0,0,0,0,0,0,0,0,0,0,0,0,0,0,0,0,0,0,0,0,0,0,0,0,0,0,0,0,0,0,0,0,0,0,0,0,0,0,0,0,0,0,0,0,0,0,0,0,0,0,0,0,0,0,0,0,0,0,0,0,0,0,0,0,0,0,0,0,0,0,0,0,0,0,0,0,0,0,0,0,0,0,0,0,0,0,0,0,0,0,0,0,0,0,0,0,0,0,0,0,0,0,0,0,0,0,0,0,0,0,0,0,0,0,0,0,0,0,0,0,0,0,0,0,0,0,0,0,0,0,0,0,0,0,0,0,0,0,0,0,0,0,0,0,0,0,0,0,0,0,0,0,0,0,0,0,0,0,0,0,0,0,0,0,0,0,0,0,0,0,0,0,0,0,0,0,0,0,0,0,0,0,0,0,0,0,0,0,0,0,0,0,0,0,0,0,0,0,0,0,0,0,0,0,0,0,0,0,0,0,0,0,0,0,0,0,0,0,0,0,0,0,0,0,0,0,0,0,0,0,0,0,0,0,0,0,0,0,0,0,0,0,0,0,0,0,0,0,0,0,0,0,0,0,0,0,0,0,0,0,0,0,0,0,0,0,0,0,0,0,0,0,0,0,0,0,0,0,0,0,0,0,0,0,0,0,0,0,0,0,0,0,0,0,0,0,0,0,0,0,0,0,0,0,0,0,0,0,0,0,0,0,0,0,0,0,0,0,0,0,0,0,0,0,0,0,0,0,0,0,0,0,0,0,0,0,0,0,0,0,0,0,0,0,0,0,0,0,0,0,0,0,0,0,0,0,0,0,0,0,0,0,0,0,0,0,0,0,0,0,0,0,0,0,0,0,0,0,0,0,0,0,0,0,0,0,0,0,0,0,0,0,0,0,0,0,0,0,0,0,0,0,0,0,0,0,0,0,0,0,0,0,0,0,0,0,0,0,0,0,0,0,0,0,0,0,0,0,0,0,0,0,0,0,0,0,0,0,0,0,0,0,0,0,0,0,0,0,0,0,0,0,0,0,0,0,0,0,0,0,0,0,0,0,0,0,0,0,0,0,0,0,0,0,0,0,0,0,0,0,0,0,0,0,0,0,0,0,0,0,0,0,0,0,0,0,0,0,0,0,0,0,0,0,0,0,0,0,0,0,0,0,0,0,0,0,0,0,0,0,0,0,0,0,0,0,0,0,0,0,0,0,0,0,0,0,0,0,0,0,0,0,0,0,0,0,0,0,0,0,0,0,0,0,0,0,0,0,0,0,0,0,0,0,0,0,0,0,0,0,0,0,0,0,0,0,0,0,0,0,0,0,0,0,0,0,0,0,0,0,0,0,0,0,0,0,0,0,0,0,0,0,0,0,0,0,0,0,0,0,0,0,0,0,0,0,0,0,0,0,0,0,0,0,0,0,0,0,0,0,0,0,0,0,0,0,0,0,0,0,0,0,0,0,0,0,0,0,0,0,0,0,0,0,0,0,0,0,0,0,0,0,0,0,0,0,0,0,0,0,0,0,0,0,0,0,0,0,0,0,0,0,0,0,0,0,0,0,0,0,0,0,0,0,0,0,0,0,0,0,0,0,0,0,0,0,0,0,0,0,0,0,0,0,0,0,0,0,0,0,0,0,0,0,0,0,0,0,0,0,0,0,0,0,0,0,0,0,0,0,0,0,0,0,0,0,0,0,0,0,0,0,0,0,0,0,0,0,0,0,0,0,0,0,0,0,0,0,0,0,0,0,0,0,0,0,0,0,0,0,0,0,0,0,0,0,0,0,0,0,0,0,0,0,0,0,0,0,0,0,0,0,0,0,0,0,0,0,0,0,0,0,0,0],"trees":[{"base_weights":[-1.0188583E-7,-4.7585443E-1,5.8649844E-1,-7.078667E-1,5.8367085E-1,-9.281399E-1,-1.9556224E-1,-9.5619047E-1,-3.0644791E-2,-5.4559063E-2,3.7233052E-1,-9.825209E-1,-3.498299E-1,-5.343434E-2,5.514591E-1,-5.4451942E-2,9.132069E-1,-5.1777154E-2,-4.0820222E-2,-5.3821903E-2,6.705172E-3,-5.2269883E-2,5.8380492E-2,2.1134049E-2,1.1707671E-1],"categories":[],"categories_nodes":[],"categories_segments":[],"categories_sizes":[],"default_left":[0,0,0,0,0,0,0,0,0,0,0,0,0,0,0,0,0,0,0,0,0,0,0,0,0],"id":0,"left_children":[1,3,-1,5,-1,7,9,11,13,-1,15,17,19,-1,21,-1,23,-1,-1,-1,-1,-1,-1,-1,-1],"loss_changes":[3.4703785E4,1.685039E4,0E0,6.6154736E2,0E0,1.03201416E2,8.9783453E2,6.3138916E1,7.6305984E1,0E0,8.550674E2,3.271411E1,5.887632E1,0E0,8.086282E1,0E0,5.519384E2,0E0,0E0,0E0,0E0,0E0,0E0,0E0,0E0],"parents":[2147483647,0,0,1,1,3,3,5,5,6,6,7,7,8,8,10,10,11,11,12,12,14,14,16,16],"right_children":[2,4,-1,6,-1,8,10,12,14,-1,16,18,20,-1,22,-1,24,-1,-1,-1,-1,-1,-1,-1,-1],"split_conditions":[6.8E0,2.2E2,5.8649844E-1,5.5E1,5.8367085E-1,1E0,5.7E0,3.935E1,5.7E0,-5.4559063E-2,1.26E2,4.3E1,5.7E0,-5.343434E-2,1.26E2,-5.4451942E-2,3.073E1,-5.1777154E-2,-4.0820222E-2,-5.3821903E-2,6.705172E-3,-5.2269883E-2,5.8380492E-2,2.1134049E-2,1.1707671E-1],"split_indices":[6,7,0,1,0,2,6,5,6,0,7,1,6,0,7,0,5,0,0,0,0,0,0,0,0],"split_type":[0,0,0,0,0,0,0,0,0,0,0,0,0,0,0,0,0,0,0,0,0,0,0,0,0],"sum_hessian":[6.2153594E3,5.9739707E3,2.4138902E2,5.8629487E3,1.1102186E2,4.0994956E3,1.7634529E3,3.9751885E3,1.2430719E2,6.839226E2,1.0795303E3,3.809161E3,1.6602779E2,4.436213E1,7.994506E1,2.9134497E2,7.881853E2,2.8835383E3,9.2562244E2,6.588281E1,1.0014498E2,2.2064526E1,5.7880535E1,5.8766223E2,2.0052304E2],"tree_param":{"num_deleted":"0","num_feature":"8","num_nodes":"25","size_leaf_vector":"1"}},{"base_weights":[-9.904701E-3,-4.641351E-1,3.488739E-1,-6.9347584E-1,3.4864384E-1,-9.2519087E-1,-2.0524465E-1,-9.602839E-1,-2.0077716E-1,-5.4315444E-2,3.191372E-1,-9.798405E-1,-2.340617E-1,-5.360976E-2,3.4160343E-1,-5.4211725E-2,8.0102307E-1,-5.4378863E-2,-4.5197465E-2,-5.2807566E-2,1.0215004E-2,-5.28745E-2,4.323387E-2,1.5827043E-2,9.110365E-2],"categories":[],"categories_nodes":[],"categories_segments":[],"categories_sizes":[],"default_left":[0,0,0,0,0,0,0,0,0,0,0,0,0,0,0,0,0,0,0,0,0,0,0,0,0],"id":1,"left_children":[1,3,-1,5,-1,7,9,11,13,-1,15,17,19,-1,21,-1,23,-1,-1,-1,-1,-1,-1,-1,-1],"loss_changes":[1.9844225E4,1.0017947E4,0E0,6.441987E2,0E0,9.799805E1,8.479294E2,5.2088135E1,8.531317E1,0E0,7.7913605E2,2.8343506E1,3.550064E1,0E0,8.2540436E1,0E0,4.2348615E2,0E0,0E0,0E0,0E0,0E0,0E0,0E0,0E0],"parents":[2147483647,0,0,1,1,3,3,5,5,6,6,7,7,8,8,10,10,11,11,12,12,14,14,16,16],"right_children":[2,4,-1,6,-1,8,10,12,14,-1,16,18,20,-1,22,-1,24,-1,-1,-1,-1,-1,-1,-1,-1],"split_conditions":[6.8E0,2.2E2,3.488739E-1,5.4E1,3.4864384E-1,3.935E1,5.7E0,1E0,5.7E0,-5.4315444E-2,1.26E2,5.7E0,5.7E0,-5.360976E-2,1.26E2,-5.4211725E-2,2.96E1,-5.4378863E-2,-4.5197465E-2,-5.2807566E-2,1.0215004E-2,-5.28745E-2,4.323387E-2,1.5827043E-2,9.110365E-2],"split_indices":[6,7,0,1,0,5,6,2,6,0,7,6,6,0,7,0,5,0,0,0,0,0,0,0,0],"split_type":[0,0,0,0,0,0,0,0,0,0,0,0,0,0,0,0,0,0,0,0,0,0,0,0,0],"sum_hessian":[6.2503315E3,5.869693E3,3.806389E2,5.694979E3,1.7471361E2,3.8614404E3,1.8335387E3,3.682712E3,1.7872847E2,6.8370636E2,1.1498323E3,3.5857998E3,9.691218E1,6.81915E1,1.1053698E2,2.9358618E2,8.562461E2,1.4764595E3,2.1093403E3,3.321414E1,6.369804E1,2.980209E1,8.073489E1,5.8159344E2,2.7465265E2],"tree_param":{"num_deleted":"0","num_feature":"8","num_nodes":"25","size_leaf_vector":"1"}},{"base_weights":[-1.4335552E-2,-4.5222312E-1,2.6095366E-1,-6.792223E-1,2.6096138E-1,-9.4022834E-1,-2.4423677E-1,-9.930313E-1,-5.870718E-1,-5.4097112E-2,2.329307E-1,-1.0298389E0,-8.1919783E-1,-5.38689E-2,-2.753826E-1,-5.4013617E-2,6.6016674E-1,-5.1728953E-2,-2.3795852E-2,-5.3961303E-2,-3.209074E-2,-5.3617097E-2,2.3724276E-3,1.8805994E-2,1.0498375E-1],"categories":[],"categories_nodes":[],"categories_segments":[],"categories_sizes":[],"default_left":[0,0,0,0,0,0,0,0,0,0,0,0,0,0,0,0,0,0,0,0,0,0,0,0,0],"id":2,"left_children":[1,3,-1,5,-1,7,9,11,13,-1,15,17,19,-1,21,-1,23,-1,-1,-1,-1,-1,-1,-1,-1],"loss_changes":[1.4290653E4,7.4119253E3,0E0,6.280542E2,0E0,6.390576E1,8.303358E2,1.839624E1,6.881911E1,0E0,7.434536E2,6.0126953E0,2.3768799E1,0E0,7.153348E1,0E0,4.0789124E2,0E0,0E0,0E0,0E0,0E0,0E0,0E0,0E0],"parents":[2147483647,0,0,1,1,3,3,5,5,6,6,7,7,8,8,10,10,11,11,12,12,14,14,16,16],"right_children":[2,4,-1,6,-1,8,10,12,14,-1,16,18,20,-1,22,-1,24,-1,-1,-1,-1,-1,-1,-1,-1],"split_conditions":[6.8E0,2.2E2,2.6095366E-1,5.1E1,2.6096138E-1,3.268E1,5.7E0,4.3E1,5.7E0,-5.4097112E-2,1.26E2,1E0,5.7E0,-5.38689E-2,1.26E2,-5.4013617E-2,3.387E1,-5.1728953E-2,-2.3795852E-2,-5.3961303E-2,-3.209074E-2,-5.3617097E-2,2.3724276E-3,1.8805994E-2,1.0498375E-1],"split_indices":[6,7,0,1,0,5,6,1,6,0,7,2,6,0,7,0,5,0,0,0,0,0,0,0,0],"split_type":[0,0,0,0,0,0,0,0,0,0,0,0,0,0,0,0,0,0,0,0,0,0,0,0,0],"sum_hessian":[6.2339517E3,5.753464E3,4.804878E2,5.5328906E3,2.205731E2,3.4572576E3,2.075633E3,3.0059973E3,4.5126004E2,7.527875E2,1.3228457E3,2.4766626E3,5.2933484E2,1.744239E2,2.7683615E2,3.2435168E2,9.984941E2,2.4547888E3,2.187383E1,2.1259901E2,3.1673584E2,7.914143E1,1.976947E2,8.3499274E2,1.635013E2],"tree_param":{"num_deleted":"0","num_feature":"8","num_nodes":"25","size_leaf_vector":"1"}},{"base_weights":[-1.6970206E-2,-4.406048E-1,2.125388E-1,-6.6507274E-1,2.1258786E-1,-8.9672357E-1,-1.7183945E-1,-9.273707E-1,-2.1146461E-3,-5.38509E-2,3.0940074E-1,-9.5612574E-1,-3.162669E-1,-5.2621543E-2,5.016379E-1,-5.3730883E-2,7.1495146E-1,-5.0740786E-2,-3.8859688E-2,-5.30257E-2,5.4859556E-3,-5.1693823E-2,5.0816502E-2,1.7125385E-2,8.142355E-2],"categories":[],"categories_nodes":[],"categories_segments":[],"categories_sizes":[],"default_left":[0,0,0,0,0,0,0,0,0,0,0,0,0,0,0,0,0,0,0,0,0,0,0,0,0],"id":3,"left_children":[1,3,-1,5,-1,7,9,11,13,-1,15,17,19,-1,21,-1,23,-1,-1,-1,-1,-1,-1,-1,-1],"loss_changes":[1.119772E4,5.937278E3,0E0,6.143108E2,0E0,1.003186E2,7.495109E2,6.186548E1,6.518393E1,0E0,6.3145825E2,3.4688965E1,5.0995728E1,0E0,6.6857346E1,0E0,2.9531216E2,0E0,0E0,0E0,0E0,0E0,0E0,0E0,0E0],"parents":[2147483647,0,0,1,1,3,3,5,5,6,6,7,7,8,8,10,10,11,11,12,12,14,14,16,16],"right_children":[2,4,-1,6,-1,8,10,12,14,-1,16,18,20,-1,22,-1,24,-1,-1,-1,-1,-1,-1,-1,-1],"split_conditions":[6.8E0,2.2E2,2.125388E-1,5.5E1,2.1258786E-1,1E0,5.7E0,3.935E1,5.7E0,-5.38509E-2,1.26E2,4.3E1,5.7E0,-5.2621543E-2,1.26E2,-5.3730883E-2,3.073E1,-5.0740786E-2,-3.8859688E-2,-5.30257E-2,5.4859556E-3,-5.1693823E-2,5.0816502E-2,1.7125385E-2,8.142355E-2],"split_indices":[6,7,0,1,0,2,6,5,6,0,7,1,6,0,7,0,5,0,0,0,0,0,0,0,0],"split_type":[0,0,0,0,0,0,0,0,0,0,0,0,0,0,0,0,0,0,0,0,0,0,0,0,0],"sum_hessian":[6.1915137E3,5.633232E3,5.582818E2,5.376877E3,2.5635468E2,3.6580344E3,1.7188425E3,3.5368345E3,1.2120009E2,5.961982E2,1.1226444E3,3.3773513E3,1.594831E2,3.893404E1,8.2266045E1,2.5403891E2,8.686055E2,2.5396655E3,8.376859E2,5.7512512E1,1.0197059E2,2.0399168E1,6.1866882E1,6.1801465E2,2.5059088E2],"tree_param":{"num_deleted":"0","num_feature":"8","num_nodes":"25","size_leaf_vector":"1"}},{"base_weights":[-1.8671958E-2,-4.293614E-1,1.8143234E-1,-6.5105665E-1,1.8148337E-1,-9.296483E-1,-2.3864228E-1,-9.828872E-1,-5.881536E-1,-5.3679455E-2,1.9178152E-1,-1.019676E0,-8.1472474E-1,-5.342967E-2,-2.9611713E-1,-5.3601064E-2,5.5441785E-1,-5.370691E-2,-4.904071E-2,-5.355665E-2,-3.1999733E-2,-5.320658E-2,-2.0879314E-4,8.106003E-3,6.3494295E-2],"categories":[],"categories_nodes":[],"categories_segments":[],"categories_sizes":[],"default_left":[0,0,0,0,0,0,0,0,0,0,0,0,0,0,0,0,0,0,0,0,0,0,0,0,0],"id":4,"left_children":[1,3,-1,5,-1,7,9,11,13,-1,15,17,19,-1,21,-1,23,-1,-1,-1,-1,-1,-1,-1,-1],"loss_changes":[9.186211E3,4.962404E3,0E0,6.003767E2,0E0,5.613672E1,7.580863E2,1.5856201E1,5.9064865E1,0E0,6.3871375E2,3.6220703E0,2.1228943E1,0E0,5.9324787E1,0E0,3.036471E2,0E0,0E0,0E0,0E0,0E0,0E0,0E0,0E0],"parents":[2147483647,0,0,1,1,3,3,5,5,6,6,7,7,8,8,10,10,11,11,12,12,14,14,16,16],"right_children":[2,4,-1,6,-1,8,10,12,14,-1,16,18,20,-1,22,-1,24,-1,-1,-1,-1,-1,-1,-1,-1],"split_conditions":[6.8E0,2.2E2,1.8143234E-1,5E1,1.8148337E-1,3.251E1,5.7E0,4.2E1,5.7E0,-5.3679455E-2,1.26E2,5.7E0,5.7E0,-5.342967E-2,1.26E2,-5.3601064E-2,2.96E1,-5.370691E-2,-4.904071E-2,-5.355665E-2,-3.1999733E-2,-5.320658E-2,-2.0879314E-4,8.106003E-3,6.3494295E-2],"split_indices":[6,7,0,1,0,5,6,1,6,0,7,6,6,0,7,0,5,0,0,0,0,0,0,0,0],"split_type":[0,0,0,0,0,0,0,0,0,0,0,0,0,0,0,0,0,0,0,0,0,0,0,0,0],"sum_hessian":[6.1306245E3,5.510969E3,6.1965497E2,5.226357E3,2.8461255E2,3.1185073E3,2.1078496E3,2.6962803E3,4.2222723E2,7.1649005E2,1.3913595E3,2.2081426E3,4.8813757E2,1.5861871E2,2.6360852E2,3.0978604E2,1.0815735E3,9.0841815E2,1.2997245E3,1.957513E2,2.9238626E2,7.1876595E1,1.9173193E2,6.9934344E2,3.8222995E2],"tree_param":{"num_deleted":"0","num_feature":"8","num_nodes":"25","size_leaf_vector":"1"}},{"base_weights":[-1.9842297E-2,-4.1848195E-1,1.5962957E-1,-6.3713473E-1,1.5967274E-1,-9.202459E-1,-2.3007654E-1,-9.752154E-1,-5.7373846E-1,-5.347997E-2,1.8019696E-1,-1.0107099E0,-7.893074E-1,-5.32192E-2,-2.8532913E-1,-5.33966E-2,5.147966E-1,-5.0802786E-2,-2.107167E-2,-5.3314377E-2,-3.0321239E-2,-5.2971017E-2,-1.9844131E-4,1.4110358E-2,7.710398E-2],"categories":[],"categories_nodes":[],"categories_segments":[],"categories_sizes":[],"default_left":[0,0,0,0,0,0,0,0,0,0,0,0,0,0,0,0,0,0,0,0,0,0,0,0,0],"id":5,"left_children":[1,3,-1,5,-1,7,9,11,13,-1,15,17,19,-1,21,-1,23,-1,-1,-1,-1,-1,-1,-1,-1],"loss_changes":[7.75851E3,4.25854E3,0E0,5.855449E2,0E0,5.6534424E1,7.1879517E2,1.6264404E1,5.8115738E1,0E0,5.861834E2,6.3999023E0,2.0582123E1,0E0,5.6921867E1,0E0,2.6395117E2,0E0,0E0,0E0,0E0,0E0,0E0,0E0,0E0],"parents":[2147483647,0,0,1,1,3,3,5,5,6,6,7,7,8,8,10,10,11,11,12,12,14,14,16,16],"right_children":[2,4,-1,6,-1,8,10,12,14,-1,16,18,20,-1,22,-1,24,-1,-1,-1,-1,-1,-1,-1,-1],"split_conditions":[6.8E0,2.2E2,1.5962957E-1,5E1,1.5967274E-1,3.251E1,5.7E0,4.3E1,5.7E0,-5.347997E-2,1.26E2,1E0,5.7E0,-5.32192E-2,1.26E2,-5.33966E-2,3.387E1,-5.0802786E-2,-2.107167E-2,-5.3314377E-2,-3.0321239E-2,-5.2971017E-2,-1.9844131E-4,1.4110358E-2,7.710398E-2],"split_indices":[6,7,0,1,0,5,6,1,6,0,7,2,6,0,7,0,5,0,0,0,0,0,0,0,0],"split_type":[0,0,0,0,0,0,0,0,0,0,0,0,0,0,0,0,0,0,0,0,0,0,0,0,0],"sum_hessian":[6.0564365E3,5.3886177E3,6.6781854E2,5.081808E3,3.0680957E2,2.99648E3,2.0853284E3,2.5846414E3,4.1183856E2,6.840279E2,1.4013004E3,2.166555E3,4.1808636E2,1.5146829E2,2.6037027E2,2.9578116E2,1.1055193E3,2.1463594E3,2.0195568E1,1.643476E2,2.5373877E2,6.867184E1,1.9169843E2,9.0246484E2,2.0305438E2],"tree_param":{"num_deleted":"0","num_feature":"8","num_nodes":"25","size_leaf_vector":"1"}},{"base_weights":[-2.0637155E-2,-4.0793124E-1,1.4345506E-1,-6.2330085E-1,1.4348826E-1,-9.108336E-1,-2.217596E-1,-9.667854E-1,-5.544479E-1,-5.329125E-2,1.6948609E-1,-1.0041659E0,-7.735674E-1,-5.3008314E-2,-2.685267E-1,-5.320272E-2,4.7894472E-1,-5.048439E-2,-2.0927547E-2,-5.311329E-2,-2.9349355E-2,-5.2732315E-2,3.208918E-4,1.6504848E-2,9.776712E-2],"categories":[],"categories_nodes":[],"categories_segments":[],"categories_sizes":[],"default_left":[0,0,0,0,0,0,0,0,0,0,0,0,0,0,0,0,0,0,0,0,0,0,0,0,0],"id":6,"left_children":[1,3,-1,5,-1,7,9,11,13,-1,15,17,19,-1,21,-1,23,-1,-1,-1,-1,-1,-1,-1,-1],"loss_changes":[6.685748E3,3.7203738E3,0E0,5.7058765E2,0E0,5.6903076E1,6.818659E2,1.7195557E1,5.6572853E1,0E0,5.392501E2,6.308838E0,2.1338303E1,0E0,5.458972E1,0E0,2.4745203E2,0E0,0E0,0E0,0E0,0E0,0E0,0E0,0E0],"parents":[2147483647,0,0,1,1,3,3,5,5,6,6,7,7,8,8,10,10,11,11,12,12,14,14,16,16],"right_children":[2,4,-1,6,-1,8,10,12,14,-1,16,18,20,-1,22,-1,24,-1,-1,-1,-1,-1,-1,-1,-1],"split_conditions":[6.8E0,2.2E2,1.4345506E-1,5E1,1.4348826E-1,3.268E1,5.7E0,4.3E1,5.7E0,-5.329125E-2,1.26E2,1E0,5.7E0,-5.3008314E-2,1.26E2,-5.320272E-2,1E0,-5.048439E-2,-2.0927547E-2,-5.311329E-2,-2.9349355E-2,-5.2732315E-2,3.208918E-4,1.6504848E-2,9.776712E-2],"split_indices":[6,7,0,1,0,5,6,1,6,0,7,2,6,0,7,0,3,0,0,0,0,0,0,0,0],"split_type":[0,0,0,0,0,0,0,0,0,0,0,0,0,0,0,0,0,0,0,0,0,0,0,0,0],"sum_hessian":[5.9717534E3,5.2667427E3,7.050108E2,4.9427744E3,3.2396814E2,2.8795437E3,2.063231E3,2.4873262E3,3.9221756E2,6.5291705E2,1.4103138E3,2.0806091E3,4.0671713E2,1.4068152E2,2.5153604E2,2.8235867E2,1.1279552E3,2.0604563E3,2.0152658E1,1.578226E2,2.4889453E2,6.4443565E1,1.8709247E2,1.0257632E3,1.0219202E2],"tree_param":{"num_deleted":"0","num_feature":"8","num_nodes":"25","size_leaf_vector":"1"}},{"base_weights":[-2.1177335E-2,-3.9764455E-1,1.3096331E-1,-6.0947967E-1,1.3098665E-1,-5.318817E-2,-3.5499424E-1,-7.933475E-1,1.5945879E-1,-8.884163E-1,-2.6440173E-1,-5.301872E-2,4.4609168E-1,-4.785133E-2,-2.975728E-2,-5.2529544E-2,-1.5372601E-4,1.2668835E-2,7.2872475E-2],"categories":[],"categories_nodes":[],"categories_segments":[],"categories_sizes":[],"default_left":[0,0,0,0,0,0,0,0,0,0,0,0,0,0,0,0,0,0,0],"id":7,"left_children":[1,3,-1,5,-1,-1,7,9,11,13,15,-1,17,-1,-1,-1,-1,-1,-1],"loss_changes":[5.8466104E3,3.2919158E3,0E0,5.557915E2,0E0,0E0,6.958237E2,8.35343E1,4.9700952E2,2.7834473E1,5.2431587E1,0E0,2.2389072E2,0E0,0E0,0E0,0E0,0E0,0E0],"parents":[2147483647,0,0,1,1,3,3,6,6,7,7,8,8,9,9,10,10,12,12],"right_children":[2,4,-1,6,-1,-1,8,10,12,14,16,-1,18,-1,-1,-1,-1,-1,-1],"split_conditions":[6.8E0,2.2E2,1.3096331E-1,5.7E0,1.3098665E-1,-5.318817E-2,5E1,3.251E1,1.26E2,4.2E1,1.26E2,-5.301872E-2,1E0,-4.785133E-2,-2.975728E-2,-5.2529544E-2,-1.5372601E-4,1.2668835E-2,7.2872475E-2],"split_indices":[6,7,0,6,0,0,1,5,7,1,7,0,2,0,0,0,0,0,0],"split_type":[0,0,0,0,0,0,0,0,0,0,0,0,0,0,0,0,0,0,0],"sum_hessian":[5.8796157E3,5.146667E3,7.3294836E2,4.8097935E3,3.3687375E2,1.7258273E3,3.083966E3,1.6648472E3,1.4191189E3,1.4106311E3,2.5421608E2,2.6949988E2,1.149619E3,1.1413503E3,2.6928073E2,6.2666626E1,1.9154945E2,9.6666986E2,1.8294916E2],"tree_param":{"num_deleted":"0","num_feature":"8","num_nodes":"19","size_leaf_vector":"1"}},{"base_weights":[-2.1515988E-2,-3.8763088E-1,1.21021084E-1,-5.9573764E-1,1.2103533E-1,-5.3020056E-2,-3.4337407E-1,-8.083718E-1,1.21602856E-1,-9.004738E-1,-2.791038E-1,-5.290038E-2,3.9251015E-1,-4.7440168E-2,-3.1152356E-2,-5.222568E-2,-1.6847817E-3,1.4976935E-3,4.380358E-2],"categories":[],"categories_nodes":[],"categories_segments":[],"categories_sizes":[],"default_left":[0,0,0,0,0,0,0,0,0,0,0,0,0,0,0,0,0,0,0],"id":8,"left_children":[1,3,-1,5,-1,-1,7,9,11,13,15,-1,17,-1,-1,-1,-1,-1,-1],"loss_changes":[5.1703604E3,2.9406433E3,0E0,5.487815E2,0E0,0E0,6.565746E2,7.3756836E1,4.8584286E2,1.67417E1,4.250741E1,0E0,2.1667633E2,0E0,0E0,0E0,0E0,0E0,0E0],"parents":[2147483647,0,0,1,1,3,3,6,6,7,7,8,8,9,9,10,10,12,12],"right_children":[2,4,-1,6,-1,-1,8,10,12,14,16,-1,18,-1,-1,-1,-1,-1,-1],"split_conditions":[6.8E0,2.2E2,1.21021084E-1,5.7E0,1.2103533E-1,-5.3020056E-2,4.8E1,3.268E1,1.26E2,4.2E1,1.26E2,-5.290038E-2,2.822E1,-4.7440168E-2,-3.1152356E-2,-5.222568E-2,-1.6847817E-3,1.4976935E-3,4.380358E-2],"split_indices":[6,7,0,6,0,0,1,5,7,1,7,0,5,0,0,0,0,0,0],"split_type":[0,0,0,0,0,0,0,0,0,0,0,0,0,0,0,0,0,0,0],"sum_hessian":[5.7811597E3,5.0281416E3,7.530181E2,4.68198E3,3.4616183E2,1.6467346E3,3.035245E3,1.5172195E3,1.5180258E3,1.2917336E3,2.2548584E2,2.8297287E2,1.235053E3,1.0980295E3,1.93704E2,5.3953297E1,1.7153255E2,7.064472E2,5.286058E2],"tree_param":{"num_deleted":"0","num_feature":"8","num_nodes":"19","size_leaf_vector":"1"}},{"base_weights":[-2.1726305E-2,-3.7791255E-1,1.1292082E-1,-5.821341E-1,1.12926796E-1,-5.2860986E-2,-3.320699E-1,-8.535463E-1,6.800749E-2,-9.443347E-1,-4.5569125E-1,-5.28243E-2,3.2839817E-1,-4.767036E-2,-4.4181403E-3,-5.215898E-2,-1.2838611E-2,1.0267827E-2,8.1445746E-2],"categories":[],"categories_nodes":[],"categories_segments":[],"categories_sizes":[],"default_left":[0,0,0,0,0,0,0,0,0,0,0,0,0,0,0,0,0,0,0],"id":9,"left_children":[1,3,-1,5,-1,-1,7,9,11,13,15,-1,17,-1,-1,-1,-1,-1,-1],"loss_changes":[4.612835E3,2.6462036E3,0E0,5.413805E2,0E0,0E0,6.2364294E2,4.64422E1,4.9585522E2,8.1137085E0,2.8133938E1,0E0,2.196647E2,0E0,0E0,0E0,0E0,0E0,0E0],"parents":[2147483647,0,0,1,1,3,3,6,6,7,7,8,8,9,9,10,10,12,12],"right_children":[2,4,-1,6,-1,-1,8,10,12,14,16,-1,18,-1,-1,-1,-1,-1,-1],"split_conditions":[6.8E0,2.2E2,1.1292082E-1,5.7E0,1.12926796E-1,-5.2860986E-2,4.4E1,3.05E1,1.26E2,1E0,1.26E2,-5.28243E-2,1E0,-4.767036E-2,-4.4181403E-3,-5.215898E-2,-1.2838611E-2,1.0267827E-2,8.1445746E-2],"split_indices":[6,7,0,6,0,0,1,5,7,2,7,0,3,0,0,0,0,0,0],"split_type":[0,0,0,0,0,0,0,0,0,0,0,0,0,0,0,0,0,0,0],"sum_hessian":[5.677693E3,4.911319E3,7.6637396E2,4.558957E3,3.5236154E2,1.5710199E3,2.9879373E3,1.2966716E3,1.6912656E3,1.054636E3,2.4203574E2,3.1742273E2,1.3738429E3,1.0434623E3,1.1173633E1,6.0148533E1,1.818872E2,1.2561561E3,1.17686775E2],"tree_param":{"num_deleted":"0","num_feature":"8","num_nodes":"19","size_leaf_vector":"1"}},{"base_weights":[-2.1822061E-2,-3.6837143E-1,1.0619662E-1,-5.6851953E-1,1.0619511E-1,-5.2710425E-2,-3.2093772E-1,-8.43054E-1,6.407177E-2,-9.366374E-1,-4.420587E-1,-5.266301E-2,3.0781418E-1,-4.7301337E-2,-4.230331E-3,-4.0576942E-2,-6.0884E-3,6.476967E-3,5.8876045E-2],"categories":[],"categories_nodes":[],"categories_segments":[],"categories_sizes":[],"default_left":[0,0,0,0,0,0,0,0,0,0,0,0,0,0,0,0,0,0,0],"id":10,"left_children":[1,3,-1,5,-1,-1,7,9,11,13,15,-1,17,-1,-1,-1,-1,-1,-1],"loss_changes":[4.144561E3,2.3948252E3,0E0,5.338744E2,0E0,0E0,5.9186365E2,4.6479187E1,4.6206113E2,8.018127E0,2.810677E1,0E0,2.1576398E2,0E0,0E0,0E0,0E0,0E0,0E0],"parents":[2147483647,0,0,1,1,3,3,6,6,7,7,8,8,9,9,10,10,12,12],"right_children":[2,4,-1,6,-1,-1,8,10,12,14,16,-1,18,-1,-1,-1,-1,-1,-1],"split_conditions":[6.8E0,2.2E2,1.0619662E-1,5.7E0,1.0619511E-1,-5.2710425E-2,4.4E1,3.05E1,1.26E2,1E0,3.2E1,-5.266301E-2,3.469E1,-4.7301337E-2,-4.230331E-3,-4.0576942E-2,-6.0884E-3,6.476967E-3,5.8876045E-2],"split_indices":[6,7,0,6,0,0,1,5,7,2,1,0,5,0,0,0,0,0,0],"split_type":[0,0,0,0,0,0,0,0,0,0,0,0,0,0,0,0,0,0,0],"sum_hessian":[5.5715176E3,4.7975234E3,7.7399414E2,4.4416016E3,3.5592175E2,1.498564E3,2.9430378E3,1.2486024E3,1.6944354E3,1.0112608E3,2.3734155E2,3.0284625E2,1.3915891E3,1.0001291E3,1.11317005E1,1.09495865E2,1.27845695E2,1.1558158E3,2.3577333E2],"tree_param":{"num_deleted":"0","num_feature":"8","num_nodes":"19","size_leaf_vector":"1"}},{"base_weights":[-2.1837808E-2,-3.5908046E-1,1.0052865E-1,-5.550442E-1,1.0052031E-1,-5.2567847E-2,-3.101112E-1,-8.324196E-1,6.038789E-2,-9.28893E-1,-4.2846128E-1,-5.2509677E-2,2.888734E-1,-4.6930414E-2,-4.0499642E-3,-5.1890563E-2,-1.1468755E-2,6.2706904E-3,5.857065E-2],"categories":[],"categories_nodes":[],"categories_segments":[],"categories_sizes":[],"default_left":[0,0,0,0,0,0,0,0,0,0,0,0,0,0,0,0,0,0,0],"id":11,"left_children":[1,3,-1,5,-1,-1,7,9,11,13,15,-1,17,-1,-1,-1,-1,-1,-1],"loss_changes":[3.745561E3,2.1773936E3,0E0,5.2600183E2,0E0,0E0,5.613225E2,4.651111E1,4.3110388E2,7.9207153E0,2.8137505E1,0E0,2.0308957E2,0E0,0E0,0E0,0E0,0E0,0E0],"parents":[2147483647,0,0,1,1,3,3,6,6,7,7,8,8,9,9,10,10,12,12],"right_children":[2,4,-1,6,-1,-1,8,10,12,14,16,-1,18,-1,-1,-1,-1,-1,-1],"split_conditions":[6.8E0,2.2E2,1.0052865E-1,5.7E0,1.0052031E-1,-5.2567847E-2,4.4E1,3.05E1,1.26E2,1E0,1.26E2,-5.2509677E-2,1E0,-4.6930414E-2,-4.0499642E-3,-5.1890563E-2,-1.1468755E-2,6.2706904E-3,5.857065E-2],"split_indices":[6,7,0,6,0,0,1,5,7,2,7,0,2,0,0,0,0,0,0],"split_type":[0,0,0,0,0,0,0,0,0,0,0,0,0,0,0,0,0,0,0],"sum_hessian":[5.4626035E3,4.6858867E3,7.767168E2,4.328659E3,3.5722742E2,1.4292493E3,2.89941E3,1.2026857E3,1.6967241E3,9.697824E2,2.3290332E2,2.8889905E2,1.4078251E3,9.5869073E2,1.1091671E1,5.63175E1,1.7658582E2,1.1887861E3,2.1903896E2],"tree_param":{"num_deleted":"0","num_feature":"8","num_nodes":"19","size_leaf_vector":"1"}},{"base_weights":[-2.1792118E-2,-3.4996498E-1,9.568967E-2,-5.416113E-1,9.5675096E-2,-5.2432775E-2,-2.995093E-1,-6.624124E-1,2.1370122E-1,-8.419208E-1,-2.363352E-1,-5.213194E-2,4.2034718E-1,-4.2742904E-2,5.365498E-2,-5.218962E-2,-2.1999942E-4,4.5146733E-3,4.0774096E-2],"categories":[],"categories_nodes":[],"categories_segments":[],"categories_sizes":[],"default_left":[0,0,0,0,0,0,0,0,0,0,0,0,0,0,0,0,0,0,0],"id":12,"left_children":[1,3,-1,5,-1,-1,7,9,11,13,15,-1,17,-1,-1,-1,-1,-1,-1],"loss_changes":[3.4013584E3,1.9870807E3,0E0,5.179385E2,0E0,0E0,5.325873E2,1.2790436E2,3.080697E2,3.0103333E1,9.323432E1,0E0,1.327262E2,0E0,0E0,0E0,0E0,0E0,0E0],"parents":[2147483647,0,0,1,1,3,3,6,6,7,7,8,8,9,9,10,10,12,12],"right_children":[2,4,-1,6,-1,-1,8,10,12,14,16,-1,18,-1,-1,-1,-1,-1,-1],"split_conditions":[6.8E0,2.2E2,9.568967E-2,5.7E0,9.5675096E-2,-5.2432775E-2,5.5E1,2.851E1,1.26E2,1E0,1.26E2,-5.213194E-2,2.785E1,-4.2742904E-2,5.365498E-2,-5.218962E-2,-2.1999942E-4,4.5146733E-3,4.0774096E-2],"split_indices":[6,7,0,6,0,0,1,5,7,3,7,0,5,0,0,0,0,0,0],"split_type":[0,0,0,0,0,0,0,0,0,0,0,0,0,0,0,0,0,0,0],"sum_hessian":[5.3526733E3,4.5774067E3,7.752667E2,4.2207954E3,3.5661133E2,1.3629602E3,2.857835E3,1.6738944E3,1.1839406E3,1.17703E3,4.9686435E2,1.6665953E2,1.01728107E3,1.1696816E3,7.3484235E0,1.10091705E2,3.8677264E2,5.549571E2,4.623239E2],"tree_param":{"num_deleted":"0","num_feature":"8","num_nodes":"19","size_leaf_vector":"1"}},{"base_weights":[-2.1684332E-2,-3.410651E-1,9.1513656E-2,-5.2832884E-1,9.149327E-2,-5.2304763E-2,-2.8920197E-1,-8.2705694E-1,4.8531886E-2,-9.2326367E-1,-4.4108734E-1,-5.22542E-2,2.543654E-1,-4.6600666E-2,-6.5481486E-3,-3.980808E-2,-5.2446467E-3,2.847216E-3,4.35146E-2],"categories":[],"categories_nodes":[],"categories_segments":[],"categories_sizes":[],"default_left":[0,0,0,0,0,0,0,0,0,0,0,0,0,0,0,0,0,0,0],"id":13,"left_children":[1,3,-1,5,-1,-1,7,9,11,13,15,-1,17,-1,-1,-1,-1,-1,-1],"loss_changes":[3.1014558E3,1.8190905E3,0E0,5.0953784E2,0E0,0E0,5.11986E2,3.996106E1,3.9017825E2,5.904236E0,2.6038517E1,0E0,1.7730959E2,0E0,0E0,0E0,0E0,0E0,0E0],"parents":[2147483647,0,0,1,1,3,3,6,6,7,7,8,8,9,9,10,10,12,12],"right_children":[2,4,-1,6,-1,-1,8,10,12,14,16,-1,18,-1,-1,-1,-1,-1,-1],"split_conditions":[6.8E0,2.2E2,9.1513656E-2,5.7E0,9.149327E-2,-5.2304763E-2,4.3E1,3.026E1,1.26E2,1E0,3.2E1,-5.22542E-2,3.284E1,-4.6600666E-2,-6.5481486E-3,-3.980808E-2,-5.2446467E-3,2.847216E-3,4.35146E-2],"split_indices":[6,7,0,6,0,0,1,5,7,2,1,0,5,0,0,0,0,0,0],"split_type":[0,0,0,0,0,0,0,0,0,0,0,0,0,0,0,0,0,0,0],"sum_hessian":[5.2414995E3,4.4712266E3,7.7027295E2,4.116864E3,3.5436264E2,1.2995831E3,2.8172805E3,1.0861283E3,1.7311523E3,8.683031E2,2.1782515E2,2.7356967E2,1.4575826E3,8.586444E2,9.658666E0,1.05272575E2,1.1255257E2,1.1046158E3,3.5296677E2],"tree_param":{"num_deleted":"0","num_feature":"8","num_nodes":"19","size_leaf_vector":"1"}},{"base_weights":[-2.154397E-2,-3.323393E-1,8.787637E-2,-5.151376E-1,8.785055E-2,-5.218339E-2,-2.791545E-1,-8.1645614E-1,4.574644E-2,-9.156331E-1,-4.2758793E-1,-5.2120984E-2,2.3929025E-1,-4.623436E-2,-6.2842206E-3,-3.9195593E-2,-5.0077112E-3,6.5482776E-3,6.6445984E-2],"categories":[],"categories_nodes":[],"categories_segments":[],"categories_sizes":[],"default_left":[0,0,0,0,0,0,0,0,0,0,0,0,0,0,0,0,0,0,0],"id":14,"left_children":[1,3,-1,5,-1,-1,7,9,11,13,15,-1,17,-1,-1,-1,-1,-1,-1],"loss_changes":[2.8378977E3,1.6696174E3,0E0,5.0090356E2,0E0,0E0,4.852401E2,4.0003784E1,3.6523428E2,5.8466187E0,2.4973812E1,0E0,1.7358691E2,0E0,0E0,0E0,0E0,0E0,0E0],"parents":[2147483647,0,0,1,1,3,3,6,6,7,7,8,8,9,9,10,10,12,12],"right_children":[2,4,-1,6,-1,-1,8,10,12,14,16,-1,18,-1,-1,-1,-1,-1,-1],"split_conditions":[6.8E0,2.2E2,8.787637E-2,5.7E0,8.785055E-2,-5.218339E-2,4.3E1,3.026E1,1.26E2,1E0,3.2E1,-5.2120984E-2,1E0,-4.623436E-2,-6.2842206E-3,-3.9195593E-2,-5.0077112E-3,6.5482776E-3,6.6445984E-2],"split_indices":[6,7,0,6,0,0,1,5,7,2,1,0,3,0,0,0,0,0,0],"split_type":[0,0,0,0,0,0,0,0,0,0,0,0,0,0,0,0,0,0,0],"sum_hessian":[5.130443E3,4.3681597E3,7.622835E2,4.0174263E3,3.5073328E2,1.2390066E3,2.7784197E3,1.0464126E3,1.7320071E3,8.32689E2,2.1372357E2,2.6087833E2,1.4711287E3,8.2308453E2,9.604509E0,1.0167905E2,1.12044525E2,1.3391211E3,1.3200757E2],"tree_param":{"num_deleted":"0","num_feature":"8","num_nodes":"19","size_leaf_vector":"1"}},{"base_weights":[-2.136165E-2,-3.2372385E-1,8.4682934E-2,-5.019644E-1,8.465195E-2,-5.206827E-2,-2.6929337E-1,-8.0573344E-1,4.3121792E-2,-9.079144E-1,-4.1429734E-1,-5.1993947E-2,2.2517763E-1,-4.586404E-2,-6.029825E-3,-4.1690577E-2,-7.1088485E-3,3.939697E-3,4.9163625E-2],"categories":[],"categories_nodes":[],"categories_segments":[],"categories_sizes":[],"default_left":[0,0,0,0,0,0,0,0,0,0,0,0,0,0,0,0,0,0,0],"id":15,"left_children":[1,3,-1,5,-1,-1,7,9,11,13,15,-1,17,-1,-1,-1,-1,-1,-1],"loss_changes":[2.6044893E3,1.5356865E3,0E0,4.9216693E2,0E0,0E0,4.5968417E2,3.9999878E1,3.4216013E2,5.786377E0,2.3946518E1,0E0,1.647669E2,0E0,0E0,0E0,0E0,0E0,0E0],"parents":[2147483647,0,0,1,1,3,3,6,6,7,7,8,8,9,9,10,10,12,12],"right_children":[2,4,-1,6,-1,-1,8,10,12,14,16,-1,18,-1,-1,-1,-1,-1,-1],"split_conditions":[6.8E0,2.2E2,8.4682934E-2,5.7E0,8.465195E-2,-5.206827E-2,4.3E1,3.026E1,1.26E2,1E0,3E1,-5.1993947E-2,1E0,-4.586404E-2,-6.029825E-3,-4.1690577E-2,-7.1088485E-3,3.939697E-3,4.9163625E-2],"split_indices":[6,7,0,6,0,0,1,5,7,2,1,0,2,0,0,0,0,0,0],"split_type":[0,0,0,0,0,0,0,0,0,0,0,0,0,0,0,0,0,0,0],"sum_hessian":[5.0205107E3,4.268734E3,7.517768E2,3.9227905E3,3.4594324E2,1.1811218E3,2.7416687E3,1.0084706E3,1.7331982E3,7.986664E2,2.0980421E2,2.4874858E2,1.4844496E3,7.891136E2,9.55277E0,8.173436E1,1.2806984E2,1.2451268E3,2.393228E2],"tree_param":{"num_deleted":"0","num_feature":"8","num_nodes":"19","size_leaf_vector":"1"}},{"base_weights":[-2.1154134E-2,-3.152686E-1,8.185955E-2,-4.88909E-1,8.182363E-2,-5.1959027E-2,-2.5969863E-1,-7.94882E-1,4.064423E-2,-9.0009606E-1,-4.0123248E-1,-5.1872678E-2,2.1202591E-1,-5.1945597E-2,-4.181557E-2,-5.128802E-2,-1.0556044E-2,5.624125E-3,6.322364E-2],"categories":[],"categories_nodes":[],"categories_segments":[],"categories_sizes":[],"default_left":[0,0,0,0,0,0,0,0,0,0,0,0,0,0,0,0,0,0,0],"id":16,"left_children":[1,3,-1,5,-1,-1,7,9,11,13,15,-1,17,-1,-1,-1,-1,-1,-1],"loss_changes":[2.3965574E3,1.4151473E3,0E0,4.8319733E2,0E0,0E0,4.3520386E2,3.9947937E1,3.2080542E2,5.92395E0,2.4368584E1,0E0,1.5678696E2,0E0,0E0,0E0,0E0,0E0,0E0],"parents":[2147483647,0,0,1,1,3,3,6,6,7,7,8,8,9,9,10,10,12,12],"right_children":[2,4,-1,6,-1,-1,8,10,12,14,16,-1,18,-1,-1,-1,-1,-1,-1],"split_conditions":[6.8E0,2.2E2,8.185955E-2,5.7E0,8.182363E-2,-5.1959027E-2,4.3E1,3.026E1,1.26E2,1.26E2,1.26E2,-5.1872678E-2,3.893E1,-5.1945597E-2,-4.181557E-2,-5.128802E-2,-1.0556044E-2,5.624125E-3,6.322364E-2],"split_indices":[6,7,0,6,0,0,1,5,7,7,7,0,5,0,0,0,0,0,0],"split_type":[0,0,0,0,0,0,0,0,0,0,0,0,0,0,0,0,0,0,0],"sum_hessian":[4.9115044E3,4.1723335E3,7.3917096E2,3.8321484E3,3.401849E2,1.1258224E3,2.706326E3,9.7223895E2,1.734087E3,7.661713E2,2.0606763E2,2.3715851E2,1.4969286E3,2.3640045E2,5.297709E2,4.7064003E1,1.5900363E2,1.3685903E3,1.2833829E2],"tree_param":{"num_deleted":"0","num_feature":"8","num_nodes":"19","size_leaf_vector":"1"}},{"base_weights":[-2.09275E-2,-3.069688E-1,7.9348E-2,-4.7598225E-1,7.930731E-2,-5.1855333E-2,-2.5037292E-1,-5.7590747E-1,2.2541867E-1,-7.835783E-1,-1.5737566E-1,-5.1449526E-2,3.7975803E-1,-4.5170277E-2,-2.8350363E-2,-5.1609136E-2,1.8933952E-3,-9.055125E-3,2.8917609E-2],"categories":[],"categories_nodes":[],"categories_segments":[],"categories_sizes":[],"default_left":[0,0,0,0,0,0,0,0,0,0,0,0,0,0,0,0,0,0,0],"id":17,"left_children":[1,3,-1,5,-1,-1,7,9,11,13,15,-1,17,-1,-1,-1,-1,-1,-1],"loss_changes":[2.2103145E3,1.3061843E3,0E0,4.7400616E2,0E0,0E0,4.1419144E2,1.3786407E2,2.1078903E2,2.7017517E1,9.017878E1,0E0,1.0796983E2,0E0,0E0,0E0,0E0,0E0,0E0],"parents":[2147483647,0,0,1,1,3,3,6,6,7,7,8,8,9,9,10,10,12,12],"right_children":[2,4,-1,6,-1,-1,8,10,12,14,16,-1,18,-1,-1,-1,-1,-1,-1],"split_conditions":[6.8E0,2.2E2,7.9348E-2,5.7E0,7.930731E-2,-5.1855333E-2,5.7E1,2.851E1,1.26E2,4.2E1,1.26E2,-5.1449526E-2,1E0,-4.5170277E-2,-2.8350363E-2,-5.1609136E-2,1.8933952E-3,-9.055125E-3,2.8917609E-2],"split_indices":[6,7,0,6,0,0,1,5,7,1,7,0,4,0,0,0,0,0,0],"split_type":[0,0,0,0,0,0,0,0,0,0,0,0,0,0,0,0,0,0,0],"sum_hessian":[4.803784E3,4.0789524E3,7.248318E2,3.745326E3,3.336265E2,1.0730048E3,2.6723213E3,1.5865797E3,1.0857415E3,1.0598312E3,5.267486E2,1.1833055E2,9.674109E2,6.802706E2,3.7956052E2,9.5329445E1,4.3141916E2,2.5299681E2,7.1441406E2],"tree_param":{"num_deleted":"0","num_feature":"8","num_nodes":"19","size_leaf_vector":"1"}},{"base_weights":[-2.0695437E-2,-2.988162E-1,7.710168E-2,-4.631805E-1,7.705632E-2,-5.175684E-2,-2.4131559E-1,-8.127234E-1,1.9089013E-2,-8.369891E-1,3.7753683E-1,-5.1702525E-2,1.786679E-1,-4.5158733E-2,-2.7128732E-2,-3.4702413E-2,4.1212793E-2,-5.0153863E-3,2.5559291E-2],"categories":[],"categories_nodes":[],"categories_segments":[],"categories_sizes":[],"default_left":[0,0,0,0,0,0,0,0,0,0,0,0,0,0,0,0,0,0,0],"id":18,"left_children":[1,3,-1,5,-1,-1,7,9,11,13,15,-1,17,-1,-1,-1,-1,-1,-1],"loss_changes":[2.0427131E3,1.2073065E3,0E0,4.646203E2,0E0,0E0,3.9295844E2,2.4194397E1,3.0522046E2,1.5304016E1,8.809068E0,0E0,1.4634692E2,0E0,0E0,0E0,0E0,0E0,0E0],"parents":[2147483647,0,0,1,1,3,3,6,6,7,7,8,8,9,9,10,10,12,12],"right_children":[2,4,-1,6,-1,-1,8,10,12,14,16,-1,18,-1,-1,-1,-1,-1,-1],"split_conditions":[6.8E0,2.2E2,7.710168E-2,5.7E0,7.705632E-2,-5.175684E-2,4E1,1E0,1.26E2,3.073E1,1.3E2,-5.1702525E-2,2.822E1,-4.5158733E-2,-2.7128732E-2,-3.4702413E-2,4.1212793E-2,-5.0153863E-3,2.5559291E-2],"split_indices":[6,7,0,6,0,0,1,2,7,5,7,0,5,0,0,0,0,0,0],"split_type":[0,0,0,0,0,0,0,0,0,0,0,0,0,0,0,0,0,0,0],"sum_hessian":[4.697858E3,3.988779E3,7.0907904E2,3.6623638E3,3.2641516E2,1.02256885E3,2.639795E3,8.25742E2,1.814053E3,8.095349E2,1.6207098E1,2.3798608E2,1.5760669E3,6.5926245E2,1.5027242E2,4.6055927E0,1.1601505E1,8.574133E2,7.186536E2],"tree_param":{"num_deleted":"0","num_feature":"8","num_nodes":"19","size_leaf_vector":"1"}},{"base_weights":[-2.042403E-2,-2.9079327E-1,7.5082816E-2,-4.5051795E-1,7.503288E-2,-5.1663276E-2,-2.3249637E-1,-8.1708163E-1,1.2069382E-2,-8.4238607E-1,4.516586E-1,-5.160864E-2,1.6535205E-1,-5.1654268E-2,-3.8154356E-2,-3.2821517E-2,4.504836E-2,4.255711E-3,6.5689586E-2],"categories":[],"categories_nodes":[],"categories_segments":[],"categories_sizes":[],"default_left":[0,0,0,0,0,0,0,0,0,0,0,0,0,0,0,0,0,0,0],"id":19,"left_children":[1,3,-1,5,-1,-1,7,9,11,13,15,-1,17,-1,-1,-1,-1,-1,-1],"loss_changes":[1.8911964E3,1.1172883E3,0E0,4.5506958E2,0E0,0E0,3.730526E2,2.5089417E1,2.947866E2,1.0627991E1,8.408449E0,0E0,1.4786688E2,0E0,0E0,0E0,0E0,0E0,0E0],"parents":[2147483647,0,0,1,1,3,3,6,6,7,7,8,8,9,9,10,10,12,12],"right_children":[2,4,-1,6,-1,-1,8,10,12,14,16,-1,18,-1,-1,-1,-1,-1,-1],"split_conditions":[6.8E0,2.2E2,7.5082816E-2,5.7E0,7.503288E-2,-5.1663276E-2,3.9E1,1E0,1.26E2,1.26E2,1.3E2,-5.160864E-2,4.091E1,-5.1654268E-2,-3.8154356E-2,-3.2821517E-2,4.504836E-2,4.255711E-3,6.5689586E-2],"split_indices":[6,7,0,6,0,0,1,2,7,7,7,0,5,0,0,0,0,0,0],"split_type":[0,0,0,0,0,0,0,0,0,0,0,0,0,0,0,0,0,0,0],"sum_hessian":[4.5935347E3,3.9013425E3,6.9219196E2,3.582663E3,3.1867957E2,9.7441656E2,2.6082466E3,7.6863586E2,1.8396106E3,7.5393506E2,1.4700819E1,2.3473544E2,1.6048751E3,2.1789946E2,5.3603564E2,4.108188E0,1.059263E1,1.501074E3,1.0380116E2],"tree_param":{"num_deleted":"0","num_feature":"8","num_nodes":"19","size_leaf_vector":"1"}},{"base_weights":[-2.0125384E-2,-2.8284764E-1,7.3260486E-2,-4.3791124E-1,7.320602E-2,-5.1574327E-2,-2.238612E-1,-4.9249914E-1,2.9454944E-1,-6.657857E-1,3.586796E-2,-5.098291E-2,4.284555E-1,-5.162236E-2,-2.7668629E-2,-5.0941497E-2,9.942206E-3,-8.005165E-3,3.160842E-2],"categories":[],"categories_nodes":[],"categories_segments":[],"categories_sizes":[],"default_left":[0,0,0,0,0,0,0,0,0,0,0,0,0,0,0,0,0,0,0],"id":20,"left_children":[1,3,-1,5,-1,-1,7,9,11,13,15,-1,17,-1,-1,-1,-1,-1,-1],"loss_changes":[1.7536753E3,1.0350308E3,0E0,4.4546942E2,0E0,0E0,3.593763E2,1.5562094E2,1.5548676E2,5.2177612E1,7.250881E1,0E0,9.605435E1,0E0,0E0,0E0,0E0,0E0,0E0],"parents":[2147483647,0,0,1,1,3,3,6,6,7,7,8,8,9,9,10,10,12,12],"right_children":[2,4,-1,6,-1,-1,8,10,12,14,16,-1,18,-1,-1,-1,-1,-1,-1],"split_conditions":[6.8E0,2.2E2,7.3260486E-2,5.7E0,7.320602E-2,-5.1574327E-2,6.1E1,3.206E1,1.26E2,1.26E2,1.26E2,-5.098291E-2,1E0,-5.162236E-2,-2.7668629E-2,-5.0941497E-2,9.942206E-3,-8.005165E-3,3.160842E-2],"split_indices":[6,7,0,6,0,0,1,5,7,7,7,0,4,0,0,0,0,0,0],"split_type":[0,0,0,0,0,0,0,0,0,0,0,0,0,0,0,0,0,0,0],"sum_hessian":[4.4918843E3,3.8174697E3,6.744146E2,3.5069377E3,3.1053195E2,9.2845374E2,2.578484E3,1.6984205E3,8.800635E2,1.2787678E3,4.1965262E2,8.076718E1,7.992963E2,2.9813766E2,9.8063025E2,5.546436E1,3.6418823E2,2.0557416E2,5.9372217E2],"tree_param":{"num_deleted":"0","num_feature":"8","num_nodes":"19","size_leaf_vector":"1"}},{"base_weights":[-1.984815E-2,-2.7506506E-1,7.160913E-2,-4.2548704E-1,7.155012E-2,-5.1489737E-2,-2.1553008E-1,-7.995272E-1,1.46748945E-2,-8.261038E-1,4.3930554E-1,-5.1408675E-2,1.5280344E-1,-5.144602E-2,-3.725665E-2,-3.1620953E-2,4.1885924E-2,2.9550088E-3,5.4401454E-2],"categories":[],"categories_nodes":[],"categories_segments":[],"categories_sizes":[],"default_left":[0,0,0,0,0,0,0,0,0,0,0,0,0,0,0,0,0,0,0],"id":21,"left_children":[1,3,-1,5,-1,-1,7,9,11,13,15,-1,17,-1,-1,-1,-1,-1,-1],"loss_changes":[1.6285813E3,9.5979614E2,0E0,4.3567657E2,0E0,0E0,3.429614E2,2.4109985E1,2.638637E2,1.0835144E1,7.276739E0,0E0,1.4167856E2,0E0,0E0,0E0,0E0,0E0,0E0],"parents":[2147483647,0,0,1,1,3,3,6,6,7,7,8,8,9,9,10,10,12,12],"right_children":[2,4,-1,6,-1,-1,8,10,12,14,16,-1,18,-1,-1,-1,-1,-1,-1],"split_conditions":[6.8E0,2.2E2,7.160913E-2,5.7E0,7.155012E-2,-5.1489737E-2,3.9E1,1E0,1.26E2,1.26E2,1.3E2,-5.1408675E-2,1E0,-5.144602E-2,-3.725665E-2,-3.1620953E-2,4.1885924E-2,2.9550088E-3,5.4401454E-2],"split_indices":[6,7,0,6,0,0,1,2,7,7,7,0,3,0,0,0,0,0,0],"split_type":[0,0,0,0,0,0,0,0,0,0,0,0,0,0,0,0,0,0,0],"sum_hessian":[4.392586E3,3.7366265E3,6.559595E2,3.4345562E3,3.020702E2,8.8458844E2,2.5499678E3,7.2027075E2,1.829697E3,7.0546954E2,1.48012295E1,2.1325002E2,1.616447E3,1.9794566E2,5.0752383E2,3.8520164E0,1.0949213E1,1.4702056E3,1.4624142E2],"tree_param":{"num_deleted":"0","num_feature":"8","num_nodes":"19","size_leaf_vector":"1"}},{"base_weights":[-1.9529533E-2,-2.6736623E-1,7.0107386E-2,-4.1316882E-1,7.004384E-2,-5.1409256E-2,-2.0738797E-1,-7.890508E-1,1.3726751E-2,-8.162433E-1,4.1019323E-1,-5.1314604E-2,1.4431123E-1,-5.134819E-2,-3.666306E-2,-3.1072173E-2,3.8689375E-2,9.5624727E-4,3.8877334E-2],"categories":[],"categories_nodes":[],"categories_segments":[],"categories_sizes":[],"default_left":[0,0,0,0,0,0,0,0,0,0,0,0,0,0,0,0,0,0,0],"id":22,"left_children":[1,3,-1,5,-1,-1,7,9,11,13,15,-1,17,-1,-1,-1,-1,-1,-1],"loss_changes":[1.514322E3,8.907617E2,0E0,4.258333E2,0E0,0E0,3.2459012E2,2.3003204E1,2.4861816E2,1.1138397E1,6.511632E0,0E0,1.2890771E2,0E0,0E0,0E0,0E0,0E0,0E0],"parents":[2147483647,0,0,1,1,3,3,6,6,7,7,8,8,9,9,10,10,12,12],"right_children":[2,4,-1,6,-1,-1,8,10,12,14,16,-1,18,-1,-1,-1,-1,-1,-1],"split_conditions":[6.8E0,2.2E2,7.0107386E-2,5.7E0,7.004384E-2,-5.1409256E-2,3.9E1,1E0,1.26E2,1.26E2,1.3E2,-5.1314604E-2,1E0,-5.134819E-2,-3.666306E-2,-3.1072173E-2,3.8689375E-2,9.5624727E-4,3.8877334E-2],"split_indices":[6,7,0,6,0,0,1,2,7,7,7,0,2,0,0,0,0,0,0],"split_type":[0,0,0,0,0,0,0,0,0,0,0,0,0,0,0,0,0,0,0],"sum_hessian":[4.2957896E3,3.6587776E3,6.370118E2,3.365398E3,2.933797E2,8.4273206E2,2.5226658E3,6.941283E2,1.8285376E3,6.790504E2,1.5077877E1,2.0321394E2,1.6253236E3,1.8864333E2,4.9040707E2,3.7444558E0,1.1333421E1,1.3579053E3,2.674183E2],"tree_param":{"num_deleted":"0","num_feature":"8","num_nodes":"19","size_leaf_vector":"1"}},{"base_weights":[-1.9203927E-2,-2.597949E-1,6.873732E-2,-4.01018E-1,6.866919E-2,-5.133264E-2,-1.9949666E-1,-7.7842313E-1,1.2830389E-2,-8.0622244E-1,3.8340253E-1,-5.122423E-2,1.3633823E-1,-5.125418E-2,-3.6062486E-2,-3.0526388E-2,3.5826307E-2,-5.8714836E-3,2.1364218E-2],"categories":[],"categories_nodes":[],"categories_segments":[],"categories_sizes":[],"default_left":[0,0,0,0,0,0,0,0,0,0,0,0,0,0,0,0,0,0,0],"id":23,"left_children":[1,3,-1,5,-1,-1,7,9,11,13,15,-1,17,-1,-1,-1,-1,-1,-1],"loss_changes":[1.4097566E3,8.273501E2,0E0,4.1588434E2,0E0,0E0,3.0699872E2,2.195465E1,2.3436855E2,1.1438995E1,5.8472137E0,0E0,1.2073808E2,0E0,0E0,0E0,0E0,0E0,0E0],"parents":[2147483647,0,0,1,1,3,3,6,6,7,7,8,8,9,9,10,10,12,12],"right_children":[2,4,-1,6,-1,-1,8,10,12,14,16,-1,18,-1,-1,-1,-1,-1,-1],"split_conditions":[6.8E0,2.2E2,6.873732E-2,5.7E0,6.866919E-2,-5.133264E-2,3.9E1,1E0,1.26E2,1.26E2,1.3E2,-5.122423E-2,2.822E1,-5.125418E-2,-3.6062486E-2,-3.0526388E-2,3.5826307E-2,-5.8714836E-3,2.1364218E-2],"split_indices":[6,7,0,6,0,0,1,2,7,7,7,0,5,0,0,0,0,0,0],"split_type":[0,0,0,0,0,0,0,0,0,0,0,0,0,0,0,0,0,0,0],"sum_hessian":[4.2014976E3,3.5837659E3,6.1773193E2,3.2992314E3,2.8453436E2,8.0279926E2,2.4964321E3,6.6918365E2,1.8272484E3,6.5384503E2,1.5338656E1,1.9363727E2,1.6336112E3,1.7976572E2,4.7407928E2,3.641347E0,1.16973095E1,8.728733E2,7.6073785E2],"tree_param":{"num_deleted":"0","num_feature":"8","num_nodes":"19","size_leaf_vector":"1"}},{"base_weights":[-1.88772E-2,-2.5237814E-1,6.7483716E-2,-3.8908705E-1,6.741094E-2,-5.1259674E-2,-1.9188453E-1,-5.1299434E-2,-4.995932E-2,-3.1884617E-1,3.69254E-1,-2.2801181E-2,2.1518037E-2,-8.355659E-3,2.7415732E-2],"categories":[],"categories_nodes":[],"categories_segments":[],"categories_sizes":[],"default_left":[0,0,0,0,0,0,0,0,0,0,0,0,0,0,0],"id":24,"left_children":[1,3,-1,5,-1,-1,7,-1,9,11,13,-1,-1,-1,-1],"loss_changes":[1.3138652E3,7.690459E2,0E0,4.0580618E2,0E0,0E0,2.9257062E2,0E0,2.3835239E2,1.3258446E2,7.9455734E1,0E0,0E0,0E0,0E0],"parents":[2147483647,0,0,1,1,3,3,6,6,8,8,9,9,10,10],"right_children":[2,4,-1,6,-1,-1,8,-1,10,12,14,-1,-1,-1,-1],"split_conditions":[6.8E0,2.2E2,6.7483716E-2,5.7E0,6.741094E-2,-5.1259674E-2,1.26E2,-5.1299434E-2,6.1E1,3.638E1,1E0,-2.2801181E-2,2.1518037E-2,-8.355659E-3,2.7415732E-2],"split_indices":[6,7,0,6,0,0,7,0,1,5,4,0,0,0,0],"split_type":[0,0,0,0,0,0,0,0,0,0,0,0,0,0,0],"sum_hessian":[4.109442E3,3.5111826E3,5.9825903E2,3.2355845E3,2.7559827E2,7.647073E2,2.4708772E3,3.583864E2,2.1124907E3,1.2871449E3,8.253458E2,1.0882762E3,1.9886867E2,2.0658813E2,6.187577E2],"tree_param":{"num_deleted":"0","num_feature":"8","num_nodes":"15","size_leaf_vector":"1"}},{"base_weights":[-1.8532777E-2,-2.4504061E-1,6.63336E-2,-3.7726778E-1,6.62561E-2,-5.1190134E-2,-1.844616E-1,-7.6012796E-1,1.5145765E-2,-7.89176E-1,3.7551033E-1,-5.1053282E-2,1.266299E-1,-4.456697E-2,-2.9534733E-2,-2.9275922E-2,3.367175E-2,2.0428568E-3,4.7284048E-2],"categories":[],"categories_nodes":[],"categories_segments":[],"categories_sizes":[],"default_left":[0,0,0,0,0,0,0,0,0,0,0,0,0,0,0,0,0,0,0],"id":25,"left_children":[1,3,-1,5,-1,-1,7,9,11,13,15,-1,17,-1,-1,-1,-1,-1,-1],"loss_changes":[1.2256688E3,7.152816E2,0E0,3.9573618E2,0E0,0E0,2.8127768E2,2.108667E1,2.1020778E2,1.1940979E1,5.0887537E0,0E0,1.1536978E2,0E0,0E0,0E0,0E0,0E0,0E0],"parents":[2147483647,0,0,1,1,3,3,6,6,7,7,8,8,9,9,10,10,12,12],"right_children":[2,4,-1,6,-1,-1,8,10,12,14,16,-1,18,-1,-1,-1,-1,-1,-1],"split_conditions":[6.8E0,2.2E2,6.63336E-2,5.7E0,6.62561E-2,-5.1190134E-2,3.9E1,1E0,1.26E2,2.8E1,1.3E2,-5.1053282E-2,1E0,-4.456697E-2,-2.9534733E-2,-2.9275922E-2,3.367175E-2,2.0428568E-3,4.7284048E-2],"split_indices":[6,7,0,6,0,0,1,2,7,1,7,0,3,0,0,0,0,0,0],"split_type":[0,0,0,0,0,0,0,0,0,0,0,0,0,0,0,0,0,0,0],"sum_hessian":[4.020484E3,3.4417708E3,5.787133E2,3.1751438E3,2.6662677E2,7.283766E2,2.4467673E3,6.292387E2,1.8175286E3,6.138426E2,1.5396132E1,1.7575745E2,1.6417711E3,4.0294553E2,2.1089705E2,3.4149745E0,1.1981158E1,1.4870898E3,1.5468132E2],"tree_param":{"num_deleted":"0","num_feature":"8","num_nodes":"19","size_leaf_vector":"1"}},{"base_weights":[-1.8178267E-2,-2.3781402E-1,6.5275826E-2,-3.6561716E-1,6.519349E-2,-5.1123824E-2,-1.7726178E-1,-5.1153917E-2,-4.49004E-2,-7.616223E-1,9.571127E-2,-4.2550217E-2,-2.4293182E-2,-9.886172E-4,3.4092136E-2],"categories":[],"categories_nodes":[],"categories_segments":[],"categories_sizes":[],"default_left":[0,0,0,0,0,0,0,0,0,0,0,0,0,0,0],"id":26,"left_children":[1,3,-1,5,-1,-1,7,-1,9,11,13,-1,-1,-1,-1],"loss_changes":[1.1444224E3,6.656766E2,0E0,3.8564066E2,0E0,0E0,2.714079E2,0E0,2.1147313E2,8.069061E0,1.187733E2,0E0,0E0,0E0,0E0],"parents":[2147483647,0,0,1,1,3,3,6,6,8,8,9,9,10,10],"right_children":[2,4,-1,6,-1,-1,8,-1,10,12,14,-1,-1,-1,-1],"split_conditions":[6.8E0,2.2E2,6.5275826E-2,5.7E0,6.519349E-2,-5.1123824E-2,1.26E2,-5.1153917E-2,3.2E1,2.6E1,1E0,-4.2550217E-2,-2.4293182E-2,-9.886172E-4,3.4092136E-2],"split_indices":[6,7,0,6,0,0,7,0,1,1,2,0,0,0,0],"split_type":[0,0,0,0,0,0,0,0,0,0,0,0,0,0,0],"sum_hessian":[3.934298E3,3.3751003E3,5.591976E2,3.117433E3,2.5766742E2,6.9373047E2,2.4237026E3,3.270508E2,2.0966519E3,3.4314844E2,1.7535033E3,2.5757443E2,8.5574005E1,1.4656895E3,2.8781387E2],"tree_param":{"num_deleted":"0","num_feature":"8","num_nodes":"15","size_leaf_vector":"1"}},{"base_weights":[-1.7821128E-2,-2.3069763E-1,6.430076E-2,-3.5413554E-1,6.4213485E-2,-5.1060554E-2,-1.7028397E-1,-5.1081043E-2,-4.2971093E-2,-7.505407E-1,9.059198E-2,-4.2113584E-2,-2.362373E-2,-7.598148E-3,1.8000033E-2],"categories":[],"categories_nodes":[],"categories_segments":[],"categories_sizes":[],"default_left":[0,0,0,0,0,0,0,0,0,0,0,0,0,0,0],"id":27,"left_children":[1,3,-1,5,-1,-1,7,-1,9,11,13,-1,-1,-1,-1],"loss_changes":[1.0694526E3,6.198574E2,0E0,3.755393E2,0E0,0E0,2.6038406E2,0E0,1.9770142E2,8.074936E0,1.15068886E2,0E0,0E0,0E0,0E0],"parents":[2147483647,0,0,1,1,3,3,6,6,8,8,9,9,10,10],"right_children":[2,4,-1,6,-1,-1,8,-1,10,12,14,-1,-1,-1,-1],"split_conditions":[6.8E0,2.2E2,6.430076E-2,5.7E0,6.4213485E-2,-5.1060554E-2,1.26E2,-5.1081043E-2,3.2E1,2.6E1,2.822E1,-4.2113584E-2,-2.362373E-2,-7.598148E-3,1.8000033E-2],"split_indices":[6,7,0,6,0,0,7,0,1,1,5,0,0,0,0],"split_type":[0,0,0,0,0,0,0,0,0,0,0,0,0,0,0],"sum_hessian":[3.8510352E3,3.311235E3,5.398001E2,3.062474E3,2.487609E2,6.606952E2,2.401779E3,3.115344E2,2.0902446E3,3.3117548E2,1.7590691E3,2.4749913E2,8.367635E1,9.2589764E2,8.3317145E2],"tree_param":{"num_deleted":"0","num_feature":"8","num_nodes":"15","size_leaf_vector":"1"}},{"base_weights":[-1.746854E-2,-2.2373216E-1,6.340007E-2,-3.428932E-1,6.33077E-2,-5.1000137E-2,-1.635668E-1,-5.1011126E-2,-4.1141044E-2,-2.9044193E-1,3.2354936E-1,-2.6405616E-2,5.058033E-3,-8.442858E-3,2.4135912E-2],"categories":[],"categories_nodes":[],"categories_segments":[],"categories_sizes":[],"default_left":[0,0,0,0,0,0,0,0,0,0,0,0,0,0,0],"id":28,"left_children":[1,3,-1,5,-1,-1,7,-1,9,11,13,-1,-1,-1,-1],"loss_changes":[1.000198E3,5.7753265E2,0E0,3.6539716E2,0E0,0E0,2.497168E2,0E0,1.8963115E2,1.15349304E2,6.646077E1,0E0,0E0,0E0,0E0],"parents":[2147483647,0,0,1,1,3,3,6,6,8,8,9,9,10,10],"right_children":[2,4,-1,6,-1,-1,8,-1,10,12,14,-1,-1,-1,-1],"split_conditions":[6.8E0,2.2E2,6.340007E-2,5.7E0,6.33077E-2,-5.1000137E-2,1.26E2,-5.1011126E-2,6.1E1,2.982E1,1E0,-2.6405616E-2,5.058033E-3,-8.442858E-3,2.4135912E-2],"split_indices":[6,7,0,6,0,0,7,0,1,5,4,0,0,0,0],"split_type":[0,0,0,0,0,0,0,0,0,0,0,0,0,0,0],"sum_hessian":[3.7701887E3,3.2495923E3,5.205964E2,3.0096504E3,2.399419E2,6.2919965E2,2.3804507E3,2.96738E2,2.083713E3,1.237777E3,8.459358E2,7.7006354E2,4.677135E2,2.0663293E2,6.393028E2],"tree_param":{"num_deleted":"0","num_feature":"8","num_nodes":"15","size_leaf_vector":"1"}},{"base_weights":[-1.7113522E-2,-2.1689802E-1,6.256646E-2,-3.3186683E-1,6.2468853E-2,-5.0942417E-2,-1.5708165E-1,-5.094397E-2,-3.939007E-2,-7.331726E-1,8.4337726E-2,-4.143453E-2,-2.253533E-2,-8.2308914E-5,3.72533E-2],"categories":[],"categories_nodes":[],"categories_segments":[],"categories_sizes":[],"default_left":[0,0,0,0,0,0,0,0,0,0,0,0,0,0,0],"id":29,"left_children":[1,3,-1,5,-1,-1,7,-1,9,11,13,-1,-1,-1,-1],"loss_changes":[9.3611145E2,5.383845E2,0E0,3.552622E2,0E0,0E0,2.3941199E2,0E0,1.784564E2,8.11557E0,1.0025067E2,0E0,0E0,0E0,0E0],"parents":[2147483647,0,0,1,1,3,3,6,6,8,8,9,9,10,10],"right_children":[2,4,-1,6,-1,-1,8,-1,10,12,14,-1,-1,-1,-1],"split_conditions":[6.8E0,2.2E2,6.256646E-2,5.7E0,6.2468853E-2,-5.0942417E-2,1.26E2,-5.094397E-2,3.2E1,2.6E1,3.822E1,-4.143453E-2,-2.253533E-2,-8.2308914E-5,3.72533E-2],"split_indices":[6,7,0,6,0,0,7,0,1,1,5,0,0,0,0],"split_type":[0,0,0,0,0,0,0,0,0,0,0,0,0,0,0],"sum_hessian":[3.691912E3,3.1902627E3,5.016494E2,2.959023E3,2.3123967E2,5.991754E2,2.3598477E3,2.8262994E2,2.0772178E3,3.1363535E2,1.7635824E3,2.3293338E2,8.070196E1,1.5613885E3,2.0219386E2],"tree_param":{"num_deleted":"0","num_feature":"8","num_nodes":"15","size_leaf_vector":"1"}},{"base_weights":[-1.6741304E-2,-2.1013989E-1,6.1793532E-2,-3.2097745E-1,6.169051E-2,-5.0887216E-2,-1.5076418E-1,-5.0879385E-2,-3.7681602E-2,-2.762266E-1,3.0041286E-1,-2.6602957E-2,2.8295554E-3,-8.163019E-3,2.2339383E-2],"categories":[],"categories_nodes":[],"categories_segments":[],"categories_sizes":[],"default_left":[0,0,0,0,0,0,0,0,0,0,0,0,0,0,0],"id":30,"left_children":[1,3,-1,5,-1,-1,7,-1,9,11,13,-1,-1,-1,-1],"loss_changes":[8.766836E2,5.0209943E2,0E0,3.4521954E2,0E0,0E0,2.294866E2,0E0,1.6722122E2,1.03532265E2,5.8290543E1,0E0,0E0,0E0,0E0],"parents":[2147483647,0,0,1,1,3,3,6,6,8,8,9,9,10,10],"right_children":[2,4,-1,6,-1,-1,8,-1,10,12,14,-1,-1,-1,-1],"split_conditions":[6.8E0,2.2E2,6.1793532E-2,5.7E0,6.169051E-2,-5.0887216E-2,1.26E2,-5.0879385E-2,6.1E1,2.851E1,1E0,-2.6602957E-2,2.8295554E-3,-8.163019E-3,2.2339383E-2],"split_indices":[6,7,0,6,0,0,7,0,1,5,4,0,0,0,0],"split_type":[0,0,0,0,0,0,0,0,0,0,0,0,0,0,0],"sum_hessian":[3.6167986E3,3.1337861E3,4.830126E2,2.9111072E3,2.2267879E2,5.7055695E2,2.3405503E3,2.6917984E2,2.0713704E3,1.2145903E3,8.567801E2,6.863804E2,5.2820996E2,2.0554796E2,6.512321E2],"tree_param":{"num_deleted":"0","num_feature":"8","num_nodes":"15","size_leaf_vector":"1"}},{"base_weights":[-1.6379569E-2,-2.0354761E-1,6.107567E-2,-3.1036144E-1,6.0967058E-2,-5.0834395E-2,-1.4470617E-1,-5.081719E-2,-3.6070187E-2,-7.153359E-1,7.8494355E-2,-4.0732007E-2,-2.1452619E-2,1.7912537E-4,4.050855E-2],"categories":[],"categories_nodes":[],"categories_segments":[],"categories_sizes":[],"default_left":[0,0,0,0,0,0,0,0,0,0,0,0,0,0,0],"id":31,"left_children":[1,3,-1,5,-1,-1,7,-1,9,11,13,-1,-1,-1,-1],"loss_changes":[8.215783E2,4.685141E2,0E0,3.3518002E2,0E0,0E0,2.19893E2,0E0,1.6085046E2,8.130783E0,9.695512E1,0E0,0E0,0E0,0E0],"parents":[2147483647,0,0,1,1,3,3,6,6,8,8,9,9,10,10],"right_children":[2,4,-1,6,-1,-1,8,-1,10,12,14,-1,-1,-1,-1],"split_conditions":[6.8E0,2.2E2,6.107567E-2,5.7E0,6.0967058E-2,-5.0834395E-2,1.26E2,-5.081719E-2,3.2E1,2.6E1,1E0,-4.0732007E-2,-2.1452619E-2,1.7912537E-4,4.050855E-2],"split_indices":[6,7,0,6,0,0,7,0,1,1,3,0,0,0,0],"split_type":[0,0,0,0,0,0,0,0,0,0,0,0,0,0,0],"sum_hessian":[3.5438894E3,3.0791594E3,4.6472992E2,2.8648796E3,2.1427979E2,5.432814E2,2.3215984E3,2.5635846E2,2.06524E3,2.972959E2,1.767944E3,2.193601E2,7.793579E1,1.6046578E3,1.632861E2],"tree_param":{"num_deleted":"0","num_feature":"8","num_nodes":"15","size_leaf_vector":"1"}},{"base_weights":[-1.6003199E-2,-1.9703098E-1,6.0407907E-2,-2.9988703E-1,6.0293496E-2,-5.0783794E-2,-1.388071E-1,-5.075722E-2,-3.449882E-2,-7.036002E-1,7.4358314E-2,-4.025909E-2,-2.080937E-2,-1.487622E-3,2.9096624E-2],"categories":[],"categories_nodes":[],"categories_segments":[],"categories_sizes":[],"default_left":[0,0,0,0,0,0,0,0,0,0,0,0,0,0,0],"id":32,"left_children":[1,3,-1,5,-1,-1,7,-1,9,11,13,-1,-1,-1,-1],"loss_changes":[7.7035815E2,4.3733862E2,0E0,3.252635E2,0E0,0E0,2.1066074E2,0E0,1.5015623E2,8.086761E0,9.372934E1,0E0,0E0,0E0,0E0],"parents":[2147483647,0,0,1,1,3,3,6,6,8,8,9,9,10,10],"right_children":[2,4,-1,6,-1,-1,8,-1,10,12,14,-1,-1,-1,-1],"split_conditions":[6.8E0,2.2E2,6.0407907E-2,5.7E0,6.0293496E-2,-5.0783794E-2,1.26E2,-5.075722E-2,3.2E1,2.6E1,1E0,-4.025909E-2,-2.080937E-2,-1.487622E-3,2.9096624E-2],"split_indices":[6,7,0,6,0,0,7,0,1,1,2,0,0,0,0],"split_type":[0,0,0,0,0,0,0,0,0,0,0,0,0,0,0],"sum_hessian":[3.4741582E3,3.02732E3,4.4683804E2,2.8212607E3,2.0605927E2,5.1728815E2,2.3039727E3,2.4413774E2,2.059835E3,2.874613E2,1.7723735E3,2.1106297E2,7.639832E1,1.471491E3,3.0088254E2],"tree_param":{"num_deleted":"0","num_feature":"8","num_nodes":"15","size_leaf_vector":"1"}},{"base_weights":[-1.5630517E-2,-1.9064976E-1,5.9785824E-2,-2.8964484E-1,5.9665393E-2,-5.0735284E-2,-1.331246E-1,-5.06993E-2,-3.300138E-2,-5.7958853E-1,9.1876924E-2,-3.9776918E-2,-1.6521355E-2,1.3714506E-3,4.588561E-2],"categories":[],"categories_nodes":[],"categories_segments":[],"categories_sizes":[],"default_left":[0,0,0,0,0,0,0,0,0,0,0,0,0,0,0],"id":33,"left_children":[1,3,-1,5,-1,-1,7,-1,9,11,13,-1,-1,-1,-1],"loss_changes":[7.22741E2,4.0842447E2,0E0,3.15419E2,0E0,0E0,2.0175763E2,0E0,1.4035716E2,2.0313828E1,8.9076416E1,0E0,0E0,0E0,0E0],"parents":[2147483647,0,0,1,1,3,3,6,6,8,8,9,9,10,10],"right_children":[2,4,-1,6,-1,-1,8,-1,10,12,14,-1,-1,-1,-1],"split_conditions":[6.8E0,2.2E2,5.9785824E-2,5.7E0,5.9665393E-2,-5.0735284E-2,1.26E2,-5.06993E-2,3.9E1,2.6E1,4.091E1,-3.9776918E-2,-1.6521355E-2,1.3714506E-3,4.588561E-2],"split_indices":[6,7,0,6,0,0,7,0,1,1,5,0,0,0,0],"split_type":[0,0,0,0,0,0,0,0,0,0,0,0,0,0,0],"sum_hessian":[3.406935E3,2.977569E3,4.2936597E2,2.7795383E3,1.9803084E2,4.925194E2,2.2870188E3,2.3249074E2,2.054528E3,3.8142136E2,1.6731067E3,2.0315382E2,1.7826755E2,1.5529484E3,1.20158356E2],"tree_param":{"num_deleted":"0","num_feature":"8","num_nodes":"15","size_leaf_vector":"1"}},{"base_weights":[-1.5251759E-2,-1.8439749E-1,5.920549E-2,-5.0688732E-2,-2.600984E-2,-1.2764199E-1,5.907881E-2,-5.0643284E-2,-3.155866E-2,-2.0417655E-1,3.4891084E-1,-1.8939232E-2,1.1238383E-2,-6.7768865E-3,2.5254998E-2],"categories":[],"categories_nodes":[],"categories_segments":[],"categories_sizes":[],"default_left":[0,0,0,0,0,0,0,0,0,0,0,0,0,0,0],"id":34,"left_children":[1,3,-1,-1,5,7,-1,-1,9,11,13,-1,-1,-1,-1],"loss_changes":[6.784213E2,3.849669E2,0E0,0E0,3.0229102E2,1.9318222E2,0E0,0E0,1.347225E2,1.05764534E2,4.8513107E1,0E0,0E0,0E0,0E0],"parents":[2147483647,0,0,1,1,4,4,5,5,8,8,9,9,10,10],"right_children":[2,4,-1,-1,6,8,-1,-1,10,12,14,-1,-1,-1,-1],"split_conditions":[6.8E0,5.7E0,5.920549E-2,-5.0688732E-2,2.2E2,1.26E2,5.907881E-2,-5.0643284E-2,6.6E1,3.284E1,1E0,-1.8939232E-2,1.1238383E-2,-6.7768865E-3,2.5254998E-2],"split_indices":[6,6,0,0,7,7,0,0,1,5,4,0,0,0,0],"split_type":[0,0,0,0,0,0,0,0,0,0,0,0,0,0,0],"sum_hessian":[3.3420935E3,2.9297566E3,4.1233676E2,4.6891922E2,2.4608374E3,2.270632E3,1.902053E2,2.2139159E2,2.0492405E3,1.4099938E3,6.392467E2,1.00216473E3,4.0782907E2,1.5588222E2,4.8336447E2],"tree_param":{"num_deleted":"0","num_feature":"8","num_nodes":"15","size_leaf_vector":"1"}},{"base_weights":[-1.4880598E-2,-1.782915E-1,5.8663405E-2,-5.0644007E-2,-2.5072137E-2,-1.223743E-1,5.8530208E-2,-5.0589006E-2,-3.018963E-2,-6.750046E-1,6.647084E-2,-3.908833E-2,-1.9332293E-2,-1.4406354E-4,3.6085103E-2],"categories":[],"categories_nodes":[],"categories_segments":[],"categories_sizes":[],"default_left":[0,0,0,0,0,0,0,0,0,0,0,0,0,0,0],"id":35,"left_children":[1,3,-1,-1,5,7,-1,-1,9,11,13,-1,-1,-1,-1],"loss_changes":[6.3714923E2,3.6886652E2,0E0,0E0,2.8382526E2,1.8491806E2,0E0,0E0,1.2750223E2,7.9074707E0,8.085502E1,0E0,0E0,0E0,0E0],"parents":[2147483647,0,0,1,1,4,4,5,5,8,8,9,9,10,10],"right_children":[2,4,-1,-1,6,8,-1,-1,10,12,14,-1,-1,-1,-1],"split_conditions":[6.8E0,5.7E0,5.8663405E-2,-5.0644007E-2,2.2E2,1.26E2,5.8530208E-2,-5.0589006E-2,3.2E1,2.6E1,1E0,-3.908833E-2,-1.9332293E-2,-1.4406354E-4,3.6085103E-2],"split_indices":[6,6,0,0,7,7,0,0,1,1,3,0,0,0,0],"split_type":[0,0,0,0,0,0,0,0,0,0,0,0,0,0,0],"sum_hessian":[3.279551E3,2.8837825E3,3.9576837E2,4.4643463E2,2.437348E3,2.254757E3,1.8259077E2,2.1081544E2,2.0439417E3,2.6567303E2,1.7782687E3,1.9263916E2,7.303387E1,1.6089655E3,1.6930328E2],"tree_param":{"num_deleted":"0","num_feature":"8","num_nodes":"15","size_leaf_vector":"1"}},{"base_weights":[-1.450387E-2,-1.7228611E-1,5.815641E-2,-5.0600983E-2,-2.415088E-2,-1.172705E-1,5.8016438E-2,-5.0536342E-2,-2.886552E-2,-6.6279066E-1,6.300236E-2,-3.8583297E-2,-1.87172E-2,-1.6674458E-3,2.6010007E-2],"categories":[],"categories_nodes":[],"categories_segments":[],"categories_sizes":[],"default_left":[0,0,0,0,0,0,0,0,0,0,0,0,0,0,0],"id":36,"left_children":[1,3,-1,-1,5,7,-1,-1,9,11,13,-1,-1,-1,-1],"loss_changes":[5.986551E2,3.533947E2,0E0,0E0,2.6662888E2,1.7697185E2,0E0,0E0,1.1885634E2,7.823723E0,7.855489E1,0E0,0E0,0E0,0E0],"parents":[2147483647,0,0,1,1,4,4,5,5,8,8,9,9,10,10],"right_children":[2,4,-1,-1,6,8,-1,-1,10,12,14,-1,-1,-1,-1],"split_conditions":[6.8E0,5.7E0,5.815641E-2,-5.0600983E-2,2.2E2,1.26E2,5.8016438E-2,-5.0536342E-2,3.2E1,2.6E1,1E0,-3.8583297E-2,-1.87172E-2,-1.6674458E-3,2.6010007E-2],"split_indices":[6,6,0,0,7,7,0,0,1,1,2,0,0,0,0],"split_type":[0,0,0,0,0,0,0,0,0,0,0,0,0,0,0],"sum_hessian":[3.2197983E3,2.8401245E3,3.7967368E2,4.250146E2,2.41511E3,2.2399167E3,1.7519337E2,2.007386E2,2.0391781E3,2.5732413E2,1.7818539E3,1.8559525E2,7.1728874E1,1.4724684E3,3.093855E2],"tree_param":{"num_deleted":"0","num_feature":"8","num_nodes":"15","size_leaf_vector":"1"}},{"base_weights":[-1.4132941E-2,-1.6642025E-1,5.768167E-2,-5.055955E-2,-2.3262322E-2,-1.12363234E-1,5.7534643E-2,-5.048514E-2,-2.760489E-2,-4.2094454E-1,1.1601005E-1,-2.4154773E-2,2.517697E-2,-2.6808344E-3,2.282904E-2],"categories":[],"categories_nodes":[],"categories_segments":[],"categories_sizes":[],"default_left":[0,0,0,0,0,0,0,0,0,0,0,0,0,0,0],"id":37,"left_children":[1,3,-1,-1,5,7,-1,-1,9,11,13,-1,-1,-1,-1],"loss_changes":[5.6274554E2,3.385075E2,0E0,0E0,2.5061148E2,1.6932361E2,0E0,0E0,1.15033134E2,3.1536636E1,8.620941E1,0E0,0E0,0E0,0E0],"parents":[2147483647,0,0,1,1,4,4,5,5,8,8,9,9,10,10],"right_children":[2,4,-1,-1,6,8,-1,-1,10,12,14,-1,-1,-1,-1],"split_conditions":[6.8E0,5.7E0,5.768167E-2,-5.055955E-2,2.2E2,1.26E2,5.7534643E-2,-5.048514E-2,1E0,1E0,6.6E1,-2.4154773E-2,2.517697E-2,-2.6808344E-3,2.282904E-2],"split_indices":[6,6,0,0,7,7,0,0,4,3,1,0,0,0,0],"split_type":[0,0,0,0,0,0,0,0,0,0,0,0,0,0,0],"sum_hessian":[3.162328E3,2.798266E3,3.6406177E2,4.046101E2,2.393656E3,2.2256387E3,1.6801735E2,1.9113829E2,2.0345004E3,5.43635E2,1.4908654E3,5.0983728E2,3.379772E1,9.957558E2,4.951096E2],"tree_param":{"num_deleted":"0","num_feature":"8","num_nodes":"15","size_leaf_vector":"1"}},{"base_weights":[-1.3751404E-2,-1.6064994E-1,5.7236638E-2,-5.0519604E-2,-2.2381993E-2,-1.0760287E-1,5.7082262E-2,-5.0435256E-2,-2.6376193E-2,-7.274805E-1,4.9904346E-2,-4.228155E-2,-2.9027564E-2,-7.4576223E-3,1.2956425E-2],"categories":[],"categories_nodes":[],"categories_segments":[],"categories_sizes":[],"default_left":[0,0,0,0,0,0,0,0,0,0,0,0,0,0,0],"id":38,"left_children":[1,3,-1,-1,5,7,-1,-1,9,11,13,-1,-1,-1,-1],"loss_changes":[5.291968E2,3.242107E2,0E0,0E0,2.3566623E2,1.6197838E2,0E0,0E0,1.08676025E2,2.9704971E0,7.637817E1,0E0,0E0,0E0,0E0],"parents":[2147483647,0,0,1,1,4,4,5,5,8,8,9,9,10,10],"right_children":[2,4,-1,-1,6,8,-1,-1,10,12,14,-1,-1,-1,-1],"split_conditions":[6.8E0,5.7E0,5.7236638E-2,-5.0519604E-2,2.2E2,1.26E2,5.7082262E-2,-5.0435256E-2,2.8E1,1E0,2.822E1,-4.228155E-2,-2.9027564E-2,-7.4576223E-3,1.2956425E-2],"split_indices":[6,6,0,0,7,7,0,0,1,4,5,0,0,0,0],"split_type":[0,0,0,0,0,0,0,0,0,0,0,0,0,0,0],"sum_hessian":[3.1075557E3,2.7586177E3,3.4893796E2,3.851745E2,2.373443E3,2.212378E3,1.6106528E2,1.8199263E2,2.0303853E3,1.9839297E2,1.8319923E3,1.0733007E2,9.10629E1,9.389541E2,8.9303815E2],"tree_param":{"num_deleted":"0","num_feature":"8","num_nodes":"15","size_leaf_vector":"1"}},{"base_weights":[-1.3399E-2,-1.5507114E-1,5.6819018E-2,-5.048103E-2,-2.1564826E-2,-1.03080556E-1,5.6656957E-2,-5.0386578E-2,-2.5243735E-2,-2.2541903E-1,2.3073871E-1,-1.7531537E-2,1.6585113E-2,-7.3437775E-3,1.7092131E-2],"categories":[],"categories_nodes":[],"categories_segments":[],"categories_sizes":[],"default_left":[0,0,0,0,0,0,0,0,0,0,0,0,0,0,0],"id":39,"left_children":[1,3,-1,-1,5,7,-1,-1,9,11,13,-1,-1,-1,-1],"loss_changes":[4.9788748E2,3.1043015E2,0E0,0E0,2.2173822E2,1.5489966E2,0E0,0E0,1.0391241E2,7.949652E1,3.7387577E1,0E0,0E0,0E0,0E0],"parents":[2147483647,0,0,1,1,4,4,5,5,8,8,9,9,10,10],"right_children":[2,4,-1,-1,6,8,-1,-1,10,12,14,-1,-1,-1,-1],"split_conditions":[6.8E0,5.7E0,5.6819018E-2,-5.048103E-2,2.2E2,1.26E2,5.6656957E-2,-5.0386578E-2,6.1E1,3.638E1,1E0,-1.7531537E-2,1.6585113E-2,-7.3437775E-3,1.7092131E-2],"split_indices":[6,6,0,0,7,7,0,0,1,5,4,0,0,0,0],"split_type":[0,0,0,0,0,0,0,0,0,0,0,0,0,0,0],"sum_hessian":[3.0544734E3,2.7201682E3,3.3430533E2,3.6666306E2,2.3535051E3,2.1991667E3,1.5433832E2,1.7328078E2,2.025886E3,1.1369353E3,8.8895074E2,9.2860425E2,2.08331E2,2.0201854E2,6.869322E2],"tree_param":{"num_deleted":"0","num_feature":"8","num_nodes":"15","size_leaf_vector":"1"}},{"base_weights":[-1.303396E-2,-1.4962786E-1,5.64267E-2,-5.044372E-2,-2.075402E-2,-9.8723695E-2,5.625662E-2,-5.033896E-2,-2.4138968E-2,-7.116577E-1,4.708937E-2,-4.1721106E-2,-2.8069645E-2,-2.1181148E-3,2.3468167E-2],"categories":[],"categories_nodes":[],"categories_segments":[],"categories_sizes":[],"default_left":[0,0,0,0,0,0,0,0,0,0,0,0,0,0,0],"id":40,"left_children":[1,3,-1,-1,5,7,-1,-1,9,11,13,-1,-1,-1,-1],"loss_changes":[4.686093E2,2.9718854E2,0E0,0E0,2.0872595E2,1.4810266E2,0E0,0E0,9.905903E1,3.0345383E0,6.926709E1,0E0,0E0,0E0,0E0],"parents":[2147483647,0,0,1,1,4,4,5,5,8,8,9,9,10,10],"right_children":[2,4,-1,-1,6,8,-1,-1,10,12,14,-1,-1,-1,-1],"split_conditions":[6.8E0,5.7E0,5.64267E-2,-5.044372E-2,2.2E2,1.26E2,5.625662E-2,-5.033896E-2,2.8E1,1E0,1E0,-4.1721106E-2,-2.8069645E-2,-2.1181148E-3,2.3468167E-2],"split_indices":[6,6,0,0,7,7,0,0,1,4,2,0,0,0,0],"split_type":[0,0,0,0,0,0,0,0,0,0,0,0,0,0,0],"sum_hessian":[3.0031477E3,2.682985E3,3.2016266E2,3.4903293E2,2.3339521E3,2.1861157E3,1.4783627E2,1.6498271E2,2.021133E3,1.8889236E2,1.8322407E3,1.0145331E2,8.743905E1,1.5127002E3,3.1954053E2],"tree_param":{"num_deleted":"0","num_feature":"8","num_nodes":"15","size_leaf_vector":"1"}},{"base_weights":[-1.2678736E-2,-1.4429638E-1,5.605778E-2,-5.040759E-2,-1.9974884E-2,-9.452058E-2,5.5879336E-2,-5.0292294E-2,-2.3088316E-2,-3.9037022E-1,1.04740895E-1,-2.2619076E-2,2.393748E-2,-2.3459562E-3,1.9887304E-2],"categories":[],"categories_nodes":[],"categories_segments":[],"categories_sizes":[],"default_left":[0,0,0,0,0,0,0,0,0,0,0,0,0,0,0],"id":41,"left_children":[1,3,-1,-1,5,7,-1,-1,9,11,13,-1,-1,-1,-1],"loss_changes":[4.412145E2,2.8446744E2,0E0,0E0,1.9656427E2,1.4157555E2,0E0,0E0,9.4788574E1,2.8309258E1,6.657829E1,0E0,0E0,0E0,0E0],"parents":[2147483647,0,0,1,1,4,4,5,5,8,8,9,9,10,10],"right_children":[2,4,-1,-1,6,8,-1,-1,10,12,14,-1,-1,-1,-1],"split_conditions":[6.8E0,5.7E0,5.605778E-2,-5.040759E-2,2.2E2,1.26E2,5.5879336E-2,-5.0292294E-2,1E0,1E0,6.6E1,-2.2619076E-2,2.393748E-2,-2.3459562E-3,1.9887304E-2],"split_indices":[6,6,0,0,7,7,0,0,4,3,1,0,0,0,0],"split_type":[0,0,0,0,0,0,0,0,0,0,0,0,0,0,0],"sum_hessian":[2.9544717E3,2.6479636E3,3.065079E2,3.3224313E2,2.3157205E3,2.174162E3,1.4155838E2,1.5707933E2,2.0170829E3,5.20246E2,1.4968369E3,4.860463E2,3.419969E1,9.8687067E2,5.0996622E2],"tree_param":{"num_deleted":"0","num_feature":"8","num_nodes":"15","size_leaf_vector":"1"}},{"base_weights":[-1.2307647E-2,-1.3906743E-1,5.5710535E-2,-5.0372537E-2,-1.9195171E-2,-9.044625E-2,5.5523336E-2,-5.0246455E-2,-2.2053838E-2,-6.9597876E-1,4.4579983E-2,-4.2906288E-2,-2.8785143E-2,-5.928714E-4,3.4964804E-2],"categories":[],"categories_nodes":[],"categories_segments":[],"categories_sizes":[],"default_left":[0,0,0,0,0,0,0,0,0,0,0,0,0,0,0],"id":42,"left_children":[1,3,-1,-1,5,7,-1,-1,9,11,13,-1,-1,-1,-1],"loss_changes":[4.1555484E2,2.722603E2,0E0,0E0,1.8518057E2,1.3531775E2,0E0,0E0,9.048888E1,3.0419312E0,6.777786E1,0E0,0E0,0E0,0E0],"parents":[2147483647,0,0,1,1,4,4,5,5,8,8,9,9,10,10],"right_children":[2,4,-1,-1,6,8,-1,-1,10,12,14,-1,-1,-1,-1],"split_conditions":[6.8E0,5.7E0,5.5710535E-2,-5.0372537E-2,2.2E2,1.26E2,5.5523336E-2,-5.0246455E-2,2.8E1,1.4E1,4.091E1,-4.2906288E-2,-2.8785143E-2,-5.928714E-4,3.4964804E-2],"split_indices":[6,6,0,0,7,7,0,0,1,1,5,0,0,0,0],"split_type":[0,0,0,0,0,0,0,0,0,0,0,0,0,0,0],"sum_hessian":[2.9080193E3,2.6146826E3,2.9333667E2,3.1625458E2,2.298428E3,2.162926E3,1.3550212E2,1.4955225E2,2.0133737E3,1.8030904E2,1.8330647E3,7.417595E1,1.06133095E2,1.688496E3,1.4456874E2],"tree_param":{"num_deleted":"0","num_feature":"8","num_nodes":"15","size_leaf_vector":"1"}},{"base_weights":[-1.1956438E-2,-1.3399172E-1,5.538339E-2,-5.0338466E-2,-1.8460285E-2,-8.655258E-2,5.5187043E-2,-5.0201315E-2,-2.1086683E-2,-3.7398246E-1,9.8661266E-2,-2.1750849E-2,2.2347203E-2,-2.247323E-3,1.8586056E-2],"categories":[],"categories_nodes":[],"categories_segments":[],"categories_sizes":[],"default_left":[0,0,0,0,0,0,0,0,0,0,0,0,0,0,0],"id":43,"left_children":[1,3,-1,-1,5,7,-1,-1,9,11,13,-1,-1,-1,-1],"loss_changes":[3.9153613E2,2.6052057E2,0E0,0E0,1.7453413E2,1.2930501E2,0E0,0E0,8.500964E1,2.5730667E1,5.8920353E1,0E0,0E0,0E0,0E0],"parents":[2147483647,0,0,1,1,4,4,5,5,8,8,9,9,10,10],"right_children":[2,4,-1,-1,6,8,-1,-1,10,12,14,-1,-1,-1,-1],"split_conditions":[6.8E0,5.7E0,5.538339E-2,-5.0338466E-2,2.2E2,1.26E2,5.5187043E-2,-5.0201315E-2,1E0,1E0,6.6E1,-2.1750849E-2,2.2347203E-2,-2.247323E-3,1.8586056E-2],"split_indices":[6,6,0,0,7,7,0,0,4,3,1,0,0,0,0],"split_type":[0,0,0,0,0,0,0,0,0,0,0,0,0,0,0],"sum_hessian":[2.8635046E3,2.5828616E3,2.806429E2,3.010298E2,2.2818318E3,2.1521667E3,1.2966512E2,1.423841E2,2.0097826E3,5.0865613E2,1.5011266E3,4.7389307E2,3.476306E1,9.842991E2,5.1682745E2],"tree_param":{"num_deleted":"0","num_feature":"8","num_nodes":"15","size_leaf_vector":"1"}},{"base_weights":[-1.1593292E-2,-1.2903525E-1,5.507487E-2,-5.0305303E-2,-1.7729053E-2,-8.2792744E-2,5.4868966E-2,-5.015678E-2,-2.0138716E-2,-6.801257E-1,4.2218678E-2,-4.2375352E-2,-2.793752E-2,-7.3196883E-3,1.1159468E-2],"categories":[],"categories_nodes":[],"categories_segments":[],"categories_sizes":[],"default_left":[0,0,0,0,0,0,0,0,0,0,0,0,0,0,0],"id":44,"left_children":[1,3,-1,-1,5,7,-1,-1,9,11,13,-1,-1,-1,-1],"loss_changes":[3.6901984E2,2.4925346E2,0E0,0E0,1.6455873E2,1.23541595E2,0E0,0E0,8.263771E1,3.0479813E0,6.266471E1,0E0,0E0,0E0,0E0],"parents":[2147483647,0,0,1,1,4,4,5,5,8,8,9,9,10,10],"right_children":[2,4,-1,-1,6,8,-1,-1,10,12,14,-1,-1,-1,-1],"split_conditions":[6.8E0,5.7E0,5.507487E-2,-5.0305303E-2,2.2E2,1.26E2,5.4868966E-2,-5.015678E-2,2.8E1,1.4E1,2.785E1,-4.2375352E-2,-2.793752E-2,-7.3196883E-3,1.1159468E-2],"split_indices":[6,6,0,0,7,7,0,0,1,1,5,0,0,0,0],"split_type":[0,0,0,0,0,0,0,0,0,0,0,0,0,0,0],"sum_hessian":[2.8208152E3,2.5523965E3,2.6841873E2,2.8653314E2,2.2658635E3,2.1418196E3,1.2404388E2,1.3555806E2,2.0062615E3,1.723381E2,1.8339233E3,6.9925545E1,1.0241257E2,8.980955E2,9.358278E2],"tree_param":{"num_deleted":"0","num_feature":"8","num_nodes":"15","size_leaf_vector":"1"}},{"base_weights":[-1.1267854E-2,-1.2426563E-1,5.478367E-2,-5.027294E-2,-1.7063472E-2,-7.923641E-2,5.456776E-2,-5.011272E-2,-1.927894E-2,-4.7748595E-1,6.571956E-2,-2.6328832E-2,3.0846393E-2,5.6321523E-4,3.5765905E-2],"categories":[],"categories_nodes":[],"categories_segments":[],"categories_sizes":[],"default_left":[0,0,0,0,0,0,0,0,0,0,0,0,0,0,0],"id":45,"left_children":[1,3,-1,-1,5,7,-1,-1,9,11,13,-1,-1,-1,-1],"loss_changes":[3.4793732E2,2.3840807E2,0E0,0E0,1.5522495E2,1.1800079E2,0E0,0E0,7.806184E1,1.717434E1,5.980546E1,0E0,0E0,0E0,0E0],"parents":[2147483647,0,0,1,1,4,4,5,5,8,8,9,9,10,10],"right_children":[2,4,-1,-1,6,8,-1,-1,10,12,14,-1,-1,-1,-1],"split_conditions":[6.8E0,5.7E0,5.478367E-2,-5.027294E-2,2.2E2,1.26E2,5.456776E-2,-5.011272E-2,3.9E1,1E0,4.091E1,-2.6328832E-2,3.0846393E-2,5.6321523E-4,3.5765905E-2],"split_indices":[6,6,0,0,7,7,0,0,1,2,5,0,0,0,0],"split_type":[0,0,0,0,0,0,0,0,0,0,0,0,0,0,0],"sum_hessian":[2.7795874E3,2.5229314E3,2.5665588E2,2.7273038E2,2.250201E3,2.1315667E3,1.186344E2,1.2905821E2,2.0025084E3,3.126215E2,1.689887E3,2.996972E2,1.292427E1,1.5601207E3,1.2976617E2],"tree_param":{"num_deleted":"0","num_feature":"8","num_nodes":"15","size_leaf_vector":"1"}},{"base_weights":[-1.0908078E-2,-1.1959433E-1,5.4508556E-2,-5.024131E-2,-1.6372815E-2,-7.577779E-2,5.4282185E-2,-5.006903E-2,-1.840383E-2,-3.5444E-1,9.232429E-2,-2.8636528E-2,-6.8787197E-3,-1.1561764E-2,1.0168604E-2],"categories":[],"categories_nodes":[],"categories_segments":[],"categories_sizes":[],"default_left":[0,0,0,0,0,0,0,0,0,0,0,0,0,0,0],"id":46,"left_children":[1,3,-1,-1,5,7,-1,-1,9,11,13,-1,-1,-1,-1],"loss_changes":[3.281415E2,2.2801617E2,0E0,0E0,1.4646132E2,1.12700554E2,0E0,0E0,7.443809E1,2.3393013E1,5.41176E1,0E0,0E0,0E0,0E0],"parents":[2147483647,0,0,1,1,4,4,5,5,8,8,9,9,10,10],"right_children":[2,4,-1,-1,6,8,-1,-1,10,12,14,-1,-1,-1,-1],"split_conditions":[6.8E0,5.7E0,5.4508556E-2,-5.024131E-2,2.2E2,1.26E2,5.4282185E-2,-5.006903E-2,1E0,5.6E1,2.664E1,-2.8636528E-2,-6.8787197E-3,-1.1561764E-2,1.0168604E-2],"split_indices":[6,6,0,0,7,7,0,0,4,1,5,0,0,0,0],"split_type":[0,0,0,0,0,0,0,0,0,0,0,0,0,0,0],"sum_hessian":[2.7399143E3,2.4945696E3,2.453447E2,2.5958902E2,2.2349807E3,2.1215483E3,1.13432335E2,1.2286926E2,1.9986791E3,4.9481635E2,1.5038628E3,2.4578021E2,2.4903612E2,3.8397974E2,1.1198829E3],"tree_param":{"num_deleted":"0","num_feature":"8","num_nodes":"15","size_leaf_vector":"1"}},{"base_weights":[-1.05853565E-2,-1.1506192E-1,5.4248393E-2,-5.0210327E-2,-1.574201E-2,-7.247877E-2,5.4011088E-2,-5.002561E-2,-1.760677E-2,-1.9096078E-1,1.9049817E-1,-1.5447668E-2,1.3511069E-2,2.2103104E-3,2.2954268E-2],"categories":[],"categories_nodes":[],"categories_segments":[],"categories_sizes":[],"default_left":[0,0,0,0,0,0,0,0,0,0,0,0,0,0,0],"id":47,"left_children":[1,3,-1,-1,5,7,-1,-1,9,11,13,-1,-1,-1,-1],"loss_changes":[3.095762E2,2.1803079E2,0E0,0E0,1.3824751E2,1.0761335E2,0E0,0E0,7.206622E1,5.9383812E1,3.565171E1,0E0,0E0,0E0,0E0],"parents":[2147483647,0,0,1,1,4,4,5,5,8,8,9,9,10,10],"right_children":[2,4,-1,-1,6,8,-1,-1,10,12,14,-1,-1,-1,-1],"split_conditions":[6.8E0,5.7E0,5.4248393E-2,-5.0210327E-2,2.2E2,1.26E2,5.4011088E-2,-5.002561E-2,6.1E1,3.609E1,1.59E2,-1.5447668E-2,1.3511069E-2,2.2103104E-3,2.2954268E-2],"split_indices":[6,6,0,0,7,7,0,0,1,5,7,0,0,0,0],"split_type":[0,0,0,0,0,0,0,0,0,0,0,0,0,0,0],"sum_hessian":[2.7025854E3,2.468111E3,2.3447446E2,2.4707784E2,2.2210332E3,2.1126E3,1.08432976E2,1.1697664E2,1.9956235E3,1.0887574E3,9.068661E2,8.6721277E2,2.2154465E2,5.8784686E2,3.1901926E2],"tree_param":{"num_deleted":"0","num_feature":"8","num_nodes":"15","size_leaf_vector":"1"}},{"base_weights":[-1.0251762E-2,-1.10671714E-1,5.4002173E-2,-5.017991E-2,-1.51149025E-2,-6.931237E-2,5.3753406E-2,-4.9982335E-2,-1.6825227E-2,-1.0046046E-1,4.0284058E-1,-7.862122E-3,2.8588096E-2,1.174562E-2,3.557593E-2],"categories":[],"categories_nodes":[],"categories_segments":[],"categories_sizes":[],"default_left":[0,0,0,0,0,0,0,0,0,0,0,0,0,0,0],"id":48,"left_children":[1,3,-1,-1,5,7,-1,-1,9,11,13,-1,-1,-1,-1],"loss_changes":[2.9214578E2,2.0844958E2,0E0,0E0,1.3053526E2,1.0274134E2,0E0,0E0,6.9992966E1,6.3552628E1,1.7010468E1,0E0,0E0,0E0,0E0],"parents":[2147483647,0,0,1,1,4,4,5,5,8,8,9,9,10,10],"right_children":[2,4,-1,-1,6,8,-1,-1,10,12,14,-1,-1,-1,-1],"split_conditions":[6.8E0,5.7E0,5.4002173E-2,-5.017991E-2,2.2E2,1.26E2,5.3753406E-2,-4.9982335E-2,1E0,1E0,1.59E2,-7.862122E-3,2.8588096E-2,1.174562E-2,3.557593E-2],"split_indices":[6,6,0,0,7,7,0,0,2,3,7,0,0,0,0],"split_type":[0,0,0,0,0,0,0,0,0,0,0,0,0,0,0],"sum_hessian":[2.6662136E3,2.442179E3,2.2403462E2,2.3516713E2,2.207012E3,2.1033806E3,1.0363126E2,1.11366394E2,1.9920143E3,1.6616287E3,3.3038553E2,1.5329113E3,1.2871744E2,2.1511751E2,1.1526801E2],"tree_param":{"num_deleted":"0","num_feature":"8","num_nodes":"15","size_leaf_vector":"1"}},{"base_weights":[-9.894487E-3,-1.06372E-1,5.376891E-2,-5.014999E-2,-1.4473764E-2,-6.62328E-2,5.350816E-2,-4.993912E-2,-1.6038183E-2,-6.46064E-1,3.8364857E-2,-4.1294526E-2,-2.6001677E-2,-1.2314981E-3,2.3415923E-2],"categories":[],"categories_nodes":[],"categories_segments":[],"categories_sizes":[],"default_left":[0,0,0,0,0,0,0,0,0,0,0,0,0,0,0],"id":49,"left_children":[1,3,-1,-1,5,7,-1,-1,9,11,13,-1,-1,-1,-1],"loss_changes":[2.7575876E2,1.9927303E2,0E0,0E0,1.232838E2,9.808299E1,0E0,0E0,6.822261E1,3.1561432E0,4.964438E1,0E0,0E0,0E0,0E0],"parents":[2147483647,0,0,1,1,4,4,5,5,8,8,9,9,10,10],"right_children":[2,4,-1,-1,6,8,-1,-1,10,12,14,-1,-1,-1,-1],"split_conditions":[6.8E0,5.7E0,5.376891E-2,-5.014999E-2,2.2E2,1.26E2,5.350816E-2,-4.993912E-2,2.8E1,1.4E1,3.822E1,-4.1294526E-2,-2.6001677E-2,-1.2314981E-3,2.3415923E-2],"split_indices":[6,6,0,0,7,7,0,0,1,1,5,0,0,0,0],"split_type":[0,0,0,0,0,0,0,0,0,0,0,0,0,0,0],"sum_hessian":[2.6315957E3,2.4175818E3,2.1401384E2,2.238286E2,2.1937532E3,2.0947312E3,9.902196E1,1.0602521E2,1.988706E3,1.5721136E2,1.8314948E3,6.2491833E1,9.4719536E1,1.5982667E3,2.3322797E2],"tree_param":{"num_deleted":"0","num_feature":"8","num_nodes":"15","size_leaf_vector":"1"}},{"base_weights":[-9.588079E-3,-1.0224642E-1,5.354772E-2,-5.012048E-2,-1.3907431E-2,-6.333192E-2,5.3274434E-2,-4.9895845E-2,-1.5342943E-2,-3.3520082E-1,8.720579E-2,-1.9698072E-2,1.93247E-2,-1.0768031E-2,9.424384E-3],"categories":[],"categories_nodes":[],"categories_segments":[],"categories_sizes":[],"default_left":[0,0,0,0,0,0,0,0,0,0,0,0,0,0,0],"id":50,"left_children":[1,3,-1,-1,5,7,-1,-1,9,11,13,-1,-1,-1,-1],"loss_changes":[2.6038315E2,1.9044989E2,0E0,0E0,1.16482056E2,9.3610794E1,0E0,0E0,6.519202E1,2.061377E1,4.6163864E1,0E0,0E0,0E0,0E0],"parents":[2147483647,0,0,1,1,4,4,5,5,8,8,9,9,10,10],"right_children":[2,4,-1,-1,6,8,-1,-1,10,12,14,-1,-1,-1,-1],"split_conditions":[6.8E0,5.7E0,5.354772E-2,-5.012048E-2,2.2E2,1.26E2,5.3274434E-2,-4.9895845E-2,1E0,1E0,2.664E1,-1.9698072E-2,1.93247E-2,-1.0768031E-2,9.424384E-3],"split_indices":[6,6,0,0,7,7,0,0,4,3,5,0,0,0,0],"split_type":[0,0,0,0,0,0,0,0,0,0,0,0,0,0,0],"sum_hessian":[2.5985837E3,2.3941838E3,2.0439992E2,2.1303514E2,2.1811487E3,2.086549E3,9.45997E1,1.00940414E2,1.9856085E3,4.815005E2,1.504108E3,4.4566818E2,3.583232E1,3.7693564E2,1.1271725E3],"tree_param":{"num_deleted":"0","num_feature":"8","num_nodes":"15","size_leaf_vector":"1"}},{"base_weights":[-9.275525E-3,-9.8225504E-2,5.3337794E-2,-5.0091308E-2,-1.3346468E-2,-6.052966E-2,5.305138E-2,-4.9852412E-2,-1.4661898E-2,-1.4341976E-1,2.3353046E-1,-1.5945753E-2,5.684776E-3,-2.4836013E-2,1.3939825E-2],"categories":[],"categories_nodes":[],"categories_segments":[],"categories_sizes":[],"default_left":[0,0,0,0,0,0,0,0,0,0,0,0,0,0,0],"id":51,"left_children":[1,3,-1,-1,5,7,-1,-1,9,11,13,-1,-1,-1,-1],"loss_changes":[2.4592313E2,1.8199612E2,0E0,0E0,1.100842E2,8.933327E1,0E0,0E0,6.343196E1,5.9004795E1,2.2551216E1,0E0,0E0,0E0,0E0],"parents":[2147483647,0,0,1,1,4,4,5,5,8,8,9,9,10,10],"right_children":[2,4,-1,-1,6,8,-1,-1,10,12,14,-1,-1,-1,-1],"split_conditions":[6.8E0,5.7E0,5.3337794E-2,-5.0091308E-2,2.2E2,1.26E2,5.305138E-2,-4.9852412E-2,6.6E1,3.073E1,2.129E1,-1.5945753E-2,5.684776E-3,-2.4836013E-2,1.3939825E-2],"split_indices":[6,6,0,0,7,7,0,0,1,5,5,0,0,0,0],"split_type":[0,0,0,0,0,0,0,0,0,0,0,0,0,0,0],"sum_hessian":[2.5672866E3,2.3721055E3,1.9518105E2,2.0276094E2,2.1693445E3,2.0789856E3,9.035897E1,9.6099915E1,1.9828857E3,1.3058538E3,6.77032E2,7.759707E2,5.2988306E2,3.893547E1,6.380965E2],"tree_param":{"num_deleted":"0","num_feature":"8","num_nodes":"15","size_leaf_vector":"1"}},{"base_weights":[-8.986286E-3,-9.437766E-2,5.3138345E-2,-5.0062414E-2,-1.2826945E-2,-5.7882983E-2,5.2838195E-2,-4.9808715E-2,-1.4034389E-2,-6.2521136E-1,3.6069077E-2,-4.1819066E-2,-2.560519E-2,-4.927562E-3,1.1411742E-2],"categories":[],"categories_nodes":[],"categories_segments":[],"categories_sizes":[],"default_left":[0,0,0,0,0,0,0,0,0,0,0,0,0,0,0],"id":52,"left_children":[1,3,-1,-1,5,7,-1,-1,9,11,13,-1,-1,-1,-1],"loss_changes":[2.3233931E2,1.7387784E2,0E0,0E0,1.0407259E2,8.523376E1,0E0,0E0,6.0669796E1,3.1571007E0,4.73996E1,0E0,0E0,0E0,0E0],"parents":[2147483647,0,0,1,1,4,4,5,5,8,8,9,9,10,10],"right_children":[2,4,-1,-1,6,8,-1,-1,10,12,14,-1,-1,-1,-1],"split_conditions":[6.8E0,5.7E0,5.3138345E-2,-5.0062414E-2,2.2E2,1.26E2,5.2838195E-2,-4.9808715E-2,2.8E1,1.2E1,1E0,-4.1819066E-2,-2.560519E-2,-4.927562E-3,1.1411742E-2],"split_indices":[6,6,0,0,7,7,0,0,1,1,0,0,0,0,0],"split_type":[0,0,0,0,0,0,0,0,0,0,0,0,0,0,0],"sum_hessian":[2.536619E3,2.3502742E3,1.8634491E2,1.9298131E2,2.1572927E3,2.0709988E3,8.6294014E1,9.149212E1,1.9795067E3,1.4911229E2,1.8303944E3,4.9779747E1,9.9332535E1,1.0766455E3,7.537489E2],"tree_param":{"num_deleted":"0","num_feature":"8","num_nodes":"15","size_leaf_vector":"1"}},{"base_weights":[-8.707513E-3,-9.0613924E-2,5.2948665E-2,-5.0033707E-2,-1.2329075E-2,-5.5323884E-2,5.2634146E-2,-4.976465E-2,-1.3436846E-2,-9.087805E-2,3.638407E-1,-7.192546E-3,2.5503019E-2,1.0432388E-2,3.225599E-2],"categories":[],"categories_nodes":[],"categories_segments":[],"categories_sizes":[],"default_left":[0,0,0,0,0,0,0,0,0,0,0,0,0,0,0],"id":53,"left_children":[1,3,-1,-1,5,7,-1,-1,9,11,13,-1,-1,-1,-1],"loss_changes":[2.195539E2,1.6610345E2,0E0,0E0,9.841402E1,8.1313576E1,0E0,0E0,5.7837685E1,5.2354237E1,1.4582611E1,0E0,0E0,0E0,0E0],"parents":[2147483647,0,0,1,1,4,4,5,5,8,8,9,9,10,10],"right_children":[2,4,-1,-1,6,8,-1,-1,10,12,14,-1,-1,-1,-1],"split_conditions":[6.8E0,5.7E0,5.2948665E-2,-5.0033707E-2,2.2E2,1.26E2,5.2634146E-2,-4.976465E-2,1E0,1E0,1.59E2,-7.192546E-3,2.5503019E-2,1.0432388E-2,3.225599E-2],"split_indices":[6,6,0,0,7,7,0,0,2,3,7,0,0,0,0],"split_type":[0,0,0,0,0,0,0,0,0,0,0,0,0,0,0],"sum_hessian":[2.5085273E3,2.3306484E3,1.77879E2,1.8367278E2,2.1469756E3,2.0645762E3,8.239942E1,8.710601E1,1.9774702E3,1.6413256E3,3.3614465E2,1.509062E3,1.3226357E2,2.1774677E2,1.18397865E2],"tree_param":{"num_deleted":"0","num_feature":"8","num_nodes":"15","size_leaf_vector":"1"}},{"base_weights":[-8.38369E-3,-8.6955085E-2,5.2768093E-2,-5.000512E-2,-1.179193E-2,-5.2834462E-2,5.2438535E-2,-4.972012E-2,-1.2803976E-2,-3.169318E-1,8.2266E-2,-2.8169379E-2,-7.827242E-3,-1.9017175E-3,1.50138615E-2],"categories":[],"categories_nodes":[],"categories_segments":[],"categories_sizes":[],"default_left":[0,0,0,0,0,0,0,0,0,0,0,0,0,0,0],"id":54,"left_children":[1,3,-1,-1,5,7,-1,-1,9,11,13,-1,-1,-1,-1],"loss_changes":[2.0750963E2,1.5866539E2,0E0,0E0,9.307883E1,7.757188E1,0E0,0E0,5.71441E1,1.8516693E1,3.950409E1,0E0,0E0,0E0,0E0],"parents":[2147483647,0,0,1,1,4,4,5,5,8,8,9,9,10,10],"right_children":[2,4,-1,-1,6,8,-1,-1,10,12,14,-1,-1,-1,-1],"split_conditions":[6.8E0,5.7E0,5.2768093E-2,-5.000512E-2,2.2E2,1.26E2,5.2438535E-2,-4.972012E-2,1E0,5.2E1,6.6E1,-2.8169379E-2,-7.827242E-3,-1.9017175E-3,1.50138615E-2],"split_indices":[6,6,0,0,7,7,0,0,4,1,1,0,0,0,0],"split_type":[0,0,0,0,0,0,0,0,0,0,0,0,0,0,0],"sum_hessian":[2.4806692E3,2.3108977E3,1.6977148E2,1.748129E2,2.136085E3,2.0574155E3,7.866939E1,8.293104E1,1.9744845E3,4.6967273E2,1.5048118E3,1.8416548E2,2.8550723E2,9.7024713E2,5.345646E2],"tree_param":{"num_deleted":"0","num_feature":"8","num_nodes":"15","size_leaf_vector":"1"}},{"base_weights":[-8.108258E-3,-8.345703E-2,5.2596014E-2,-4.99766E-2,-1.1321606E-2,-5.049629E-2,5.225071E-2,-4.9675014E-2,-1.2249532E-2,-6.039092E-1,3.3855274E-2,-4.1134678E-2,-2.4499713E-2,1.00530764E-4,3.849531E-2],"categories":[],"categories_nodes":[],"categories_segments":[],"categories_sizes":[],"default_left":[0,0,0,0,0,0,0,0,0,0,0,0,0,0,0],"id":55,"left_children":[1,3,-1,-1,5,7,-1,-1,9,11,13,-1,-1,-1,-1],"loss_changes":[1.9618697E2,1.515242E2,0E0,0E0,8.806248E1,7.39856E1,0E0,0E0,5.383319E1,3.1524734E0,4.2917263E1,0E0,0E0,0E0,0E0],"parents":[2147483647,0,0,1,1,4,4,5,5,8,8,9,9,10,10],"right_children":[2,4,-1,-1,6,8,-1,-1,10,12,14,-1,-1,-1,-1],"split_conditions":[6.8E0,5.7E0,5.2596014E-2,-4.99766E-2,2.2E2,1.26E2,5.225071E-2,-4.9675014E-2,2.8E1,1.2E1,4.489E1,-4.1134678E-2,-2.4499713E-2,1.00530764E-4,3.849531E-2],"split_indices":[6,6,0,0,7,7,0,0,1,1,5,0,0,0,0],"split_type":[0,0,0,0,0,0,0,0,0,0,0,0,0,0,0],"sum_hessian":[2.4541726E3,2.2921628E3,1.6200986E2,1.6638031E2,2.1257825E3,2.050684E3,7.509834E1,7.895716E1,1.971727E3,1.4166405E2,1.830063E3,4.6374817E1,9.528922E1,1.7551313E3,7.493164E1],"tree_param":{"num_deleted":"0","num_feature":"8","num_nodes":"15","size_leaf_vector":"1"}},{"base_weights":[-7.8348555E-3,-8.0059454E-2,5.243183E-2,-4.9948048E-2,-1.0863131E-2,-4.824426E-2,5.207006E-2,-4.962923E-2,-1.1713288E-2,-3.0301708E-1,7.755008E-2,-2.5303403E-2,-6.1144107E-3,-2.8649934E-3,1.356823E-2],"categories":[],"categories_nodes":[],"categories_segments":[],"categories_sizes":[],"default_left":[0,0,0,0,0,0,0,0,0,0,0,0,0,0,0],"id":56,"left_children":[1,3,-1,-1,5,7,-1,-1,9,11,13,-1,-1,-1,-1],"loss_changes":[1.8552084E2,1.4468742E2,0E0,0E0,8.33349E1,7.055838E1,0E0,0E0,5.1261166E1,1.6906322E1,3.9456837E1,0E0,0E0,0E0,0E0],"parents":[2147483647,0,0,1,1,4,4,5,5,8,8,9,9,10,10],"right_children":[2,4,-1,-1,6,8,-1,-1,10,12,14,-1,-1,-1,-1],"split_conditions":[6.8E0,5.7E0,5.243183E-2,-4.9948048E-2,2.2E2,1.26E2,5.207006E-2,-4.962923E-2,1E0,5.6E1,1E0,-2.5303403E-2,-6.1144107E-3,-2.8649934E-3,1.356823E-2],"split_indices":[6,6,0,0,7,7,0,0,4,1,0,0,0,0,0],"split_type":[0,0,0,0,0,0,0,0,0,0,0,0,0,0,0],"sum_hessian":[2.429263E3,2.274681E3,1.5458203E2,1.5835455E2,2.1163262E3,2.0446455E3,7.168079E1,7.5174835E1,1.9694706E3,4.613846E2,1.508086E3,2.1642664E2,2.4495798E2,8.8973865E2,6.1834735E2],"tree_param":{"num_deleted":"0","num_feature":"8","num_nodes":"15","size_leaf_vector":"1"}},{"base_weights":[-7.5710174E-3,-7.6772824E-2,5.227501E-2,-4.991942E-2,-1.042484E-2,-4.6086505E-2,5.1895995E-2,-4.9582664E-2,-1.1203703E-2,-3.4460354E-1,6.497093E-2,-2.67933E-2,-3.9948514E-3,-2.2672617E-3,1.37389E-2],"categories":[],"categories_nodes":[],"categories_segments":[],"categories_sizes":[],"default_left":[0,0,0,0,0,0,0,0,0,0,0,0,0,0,0],"id":57,"left_children":[1,3,-1,-1,5,7,-1,-1,9,11,13,-1,-1,-1,-1],"loss_changes":[1.7547331E2,1.381403E2,0E0,0E0,7.8879074E1,6.728227E1,0E0,0E0,5.0018326E1,1.8501839E1,3.712141E1,0E0,0E0,0E0,0E0],"parents":[2147483647,0,0,1,1,4,4,5,5,8,8,9,9,10,10],"right_children":[2,4,-1,-1,6,8,-1,-1,10,12,14,-1,-1,-1,-1],"split_conditions":[6.8E0,5.7E0,5.227501E-2,-4.991942E-2,2.2E2,1.26E2,5.1895995E-2,-4.9582664E-2,2.522E1,6.3E1,6.6E1,-2.67933E-2,-3.9948514E-3,-2.2672617E-3,1.37389E-2],"split_indices":[6,6,0,0,7,7,0,0,5,1,1,0,0,0,0],"split_type":[0,0,0,0,0,0,0,0,0,0,0,0,0,0,0],"sum_hessian":[2.4057847E3,2.2583088E3,1.4747603E2,1.5071628E2,2.1075925E3,2.0391814E3,6.841103E1,7.157491E1,1.9676066E3,3.6528955E2,1.602317E3,2.1146916E2,1.5382039E2,1.0506638E3,5.516532E2],"tree_param":{"num_deleted":"0","num_feature":"8","num_nodes":"15","size_leaf_vector":"1"}},{"base_weights":[-7.3157065E-3,-7.362592E-2,5.2125026E-2,-4.989063E-2,-1.0006274E-2,-4.40379E-2,5.172798E-2,-4.953521E-2,-1.0720266E-2,-8.229114E-2,3.2881728E-1,-1.1641052E-2,5.4984614E-3,1.414648E-2,5.9460234E-2],"categories":[],"categories_nodes":[],"categories_segments":[],"categories_sizes":[],"default_left":[0,0,0,0,0,0,0,0,0,0,0,0,0,0,0],"id":58,"left_children":[1,3,-1,-1,5,7,-1,-1,9,11,13,-1,-1,-1,-1],"loss_changes":[1.6600958E2,1.3186742E2,0E0,0E0,7.467924E1,6.415001E1,0E0,0E0,4.780451E1,4.7042793E1,1.3184975E1,0E0,0E0,0E0,0E0],"parents":[2147483647,0,0,1,1,4,4,5,5,8,8,9,9,10,10],"right_children":[2,4,-1,-1,6,8,-1,-1,10,12,14,-1,-1,-1,-1],"split_conditions":[6.8E0,5.7E0,5.2125026E-2,-4.989063E-2,2.2E2,1.26E2,5.172798E-2,-4.953521E-2,1E0,2.873E1,4.611E1,-1.1641052E-2,5.4984614E-3,1.414648E-2,5.9460234E-2],"split_indices":[6,6,0,0,7,7,0,0,2,5,5,0,0,0,0],"split_type":[0,0,0,0,0,0,0,0,0,0,0,0,0,0,0],"sum_hessian":[2.3826287E3,2.241949E3,1.406798E2,1.4344695E2,2.098502E3,2.0332183E3,6.528377E1,6.8148705E1,1.9650696E3,1.6235914E3,3.4147803E2,9.105035E2,7.13088E2,3.2544943E2,1.6028597E1],"tree_param":{"num_deleted":"0","num_feature":"8","num_nodes":"15","size_leaf_vector":"1"}},{"base_weights":[-7.027563E-3,-7.056436E-2,5.19814E-2,-4.9861614E-2,-9.559757E-3,-4.2041313E-2,5.1565494E-2,-4.9486768E-2,-1.0211595E-2,-5.771637E-1,3.1378884E-2,-4.0192436E-2,-2.3199772E-2,-8.808472E-4,2.276744E-2],"categories":[],"categories_nodes":[],"categories_segments":[],"categories_sizes":[],"default_left":[0,0,0,0,0,0,0,0,0,0,0,0,0,0,0],"id":59,"left_children":[1,3,-1,-1,5,7,-1,-1,9,11,13,-1,-1,-1,-1],"loss_changes":[1.5707927E2,1.2587195E2,0E0,0E0,7.071241E1,6.1162556E1,0E0,0E0,4.6306656E1,3.0701256E0,3.8018898E1,0E0,0E0,0E0,0E0],"parents":[2147483647,0,0,1,1,4,4,5,5,8,8,9,9,10,10],"right_children":[2,4,-1,-1,6,8,-1,-1,10,12,14,-1,-1,-1,-1],"split_conditions":[6.8E0,5.7E0,5.19814E-2,-4.9861614E-2,2.2E2,1.26E2,5.1565494E-2,-4.9486768E-2,2.8E1,1.2E1,1E0,-4.0192436E-2,-2.3199772E-2,-8.808472E-4,2.276744E-2],"split_indices":[6,6,0,0,7,7,0,0,1,1,3,0,0,0,0],"split_type":[0,0,0,0,0,0,0,0,0,0,0,0,0,0,0],"sum_hessian":[2.3599507E3,2.2257688E3,1.341818E2,1.3652896E2,2.08924E3,2.0269463E3,6.2293625E1,6.4887886E1,1.9620583E3,1.3321562E2,1.8288428E3,4.2327385E1,9.088823E1,1.6402471E3,1.8859572E2],"tree_param":{"num_deleted":"0","num_feature":"8","num_nodes":"15","size_leaf_vector":"1"}},{"base_weights":[-6.790653E-3,-6.764302E-2,5.1843684E-2,-4.9832307E-2,-9.178615E-3,-4.0172137E-2,5.1408052E-2,-4.943722E-2,-9.776446E-3,-2.856316E-1,7.278406E-2,-3.7809584E-2,-1.0745149E-2,-2.6948252E-3,1.2611732E-2],"categories":[],"categories_nodes":[],"categories_segments":[],"categories_sizes":[],"default_left":[0,0,0,0,0,0,0,0,0,0,0,0,0,0,0],"id":60,"left_children":[1,3,-1,-1,5,7,-1,-1,9,11,13,-1,-1,-1,-1],"loss_changes":[1.4866983E2,1.20123535E2,0E0,0E0,6.69757E1,5.8302723E1,0E0,0E0,4.467451E1,1.4875664E1,3.4336376E1,0E0,0E0,0E0,0E0],"parents":[2147483647,0,0,1,1,4,4,5,5,8,8,9,9,10,10],"right_children":[2,4,-1,-1,6,8,-1,-1,10,12,14,-1,-1,-1,-1],"split_conditions":[6.8E0,5.7E0,5.1843684E-2,-4.9832307E-2,2.2E2,1.26E2,5.1408052E-2,-4.943722E-2,1E0,2.5E1,1E0,-3.7809584E-2,-1.0745149E-2,-2.6948252E-3,1.2611732E-2],"split_indices":[6,6,0,0,7,7,0,0,4,1,0,0,0,0,0],"split_type":[0,0,0,0,0,0,0,0,0,0,0,0,0,0,0],"sum_hessian":[2.3388047E3,2.210834E3,1.27970695E2,1.2994545E2,2.0808884E3,2.021453E3,5.943548E1,6.178457E1,1.9596685E3,4.508401E2,1.5088284E3,5.764362E1,3.9319647E2,8.848681E2,6.2396027E2],"tree_param":{"num_deleted":"0","num_feature":"8","num_nodes":"15","size_leaf_vector":"1"}},{"base_weights":[-6.563557E-3,-6.4813524E-2,5.171145E-2,-4.980263E-2,-8.815413E-3,-3.8377576E-2,5.1255185E-2,-4.9386468E-2,-9.363677E-3,-5.8169997E-1,2.8660052E-2,-3.217768E-2,-1.1043051E-2,-1.0024019E-3,2.3502227E-2],"categories":[],"categories_nodes":[],"categories_segments":[],"categories_sizes":[],"default_left":[0,0,0,0,0,0,0,0,0,0,0,0,0,0,0],"id":61,"left_children":[1,3,-1,-1,5,7,-1,-1,9,11,13,-1,-1,-1,-1],"loss_changes":[1.40737E2,1.1462476E2,0E0,0E0,6.344834E1,5.557165E1,0E0,0E0,4.2649895E1,2.5827942E0,3.9523403E1,0E0,0E0,0E0,0E0],"parents":[2147483647,0,0,1,1,4,4,5,5,8,8,9,9,10,10],"right_children":[2,4,-1,-1,6,8,-1,-1,10,12,14,-1,-1,-1,-1],"split_conditions":[6.8E0,5.7E0,5.171145E-2,-4.980263E-2,2.2E2,1.26E2,5.1255185E-2,-4.9386468E-2,2.129E1,8E1,1E0,-3.217768E-2,-1.1043051E-2,-1.0024019E-3,2.3502227E-2],"split_indices":[6,6,0,0,7,7,0,0,5,1,3,0,0,0,0],"split_type":[0,0,0,0,0,0,0,0,0,0,0,0,0,0,0],"sum_hessian":[2.3192861E3,2.1972505E3,1.2203562E2,1.2368032E2,2.07357E3,2.0168661E3,5.670403E1,5.8831207E1,1.9580348E3,1.2108936E2,1.8369454E3,1.0270124E2,1.8388123E1,1.6552395E3,1.8170601E2],"tree_param":{"num_deleted":"0","num_feature":"8","num_nodes":"15","size_leaf_vector":"1"}},{"base_weights":[-6.3291998E-3,-6.2087283E-2,5.1584285E-2,-4.9772516E-2,-8.451607E-3,-3.665391E-2,5.110646E-2,-4.330246E-1,3.0410103E-2,-4.8061037E-1,4.6720028E-1,2.8469022E-3,8.80271E-1,-4.8422363E-2,-2.1210672E-2,-2.7504757E-2,2.9267265E-2,-5.829781E-3,8.106932E-3,6.015831E-2,1.9423584E-2],"categories":[],"categories_nodes":[],"categories_segments":[],"categories_sizes":[],"default_left":[0,0,0,0,0,0,0,0,0,0,0,0,0,0,0,0,0,0,0,0,0],"id":62,"left_children":[1,3,-1,-1,5,7,-1,9,11,13,15,17,19,-1,-1,-1,-1,-1,-1,-1,-1],"loss_changes":[1.3325034E2,1.0936615E2,0E0,0E0,6.0116726E1,5.352285E1,0E0,1.2706089E1,4.0349716E1,7.216507E0,2.1410995E0,3.1783363E1,8.125378E0,0E0,0E0,0E0,0E0,0E0,0E0,0E0,0E0],"parents":[2147483647,0,0,1,1,4,4,5,5,7,7,8,8,9,9,10,10,11,11,12,12],"right_children":[2,4,-1,-1,6,8,-1,10,12,14,16,18,20,-1,-1,-1,-1,-1,-1,-1,-1],"split_conditions":[6.8E0,5.7E0,5.1584285E-2,-4.9772516E-2,2.2E2,3.9E1,5.110646E-2,1E0,4.611E1,1.26E2,2.7E1,1E0,1.58E2,-4.8422363E-2,-2.1210672E-2,-2.7504757E-2,2.9267265E-2,-5.829781E-3,8.106932E-3,6.015831E-2,1.9423584E-2],"split_indices":[6,6,0,0,7,1,0,2,5,7,1,0,7,0,0,0,0,0,0,0,0],"split_type":[0,0,0,0,0,0,0,0,0,0,0,0,0,0,0,0,0,0,0,0,0],"sum_hessian":[2.3001665E3,2.1838015E3,1.1636504E2,1.1771834E2,2.0660833E3,2.0119886E3,5.4094532E1,2.9036688E2,1.7216217E3,2.762314E2,1.413544E1,1.668511E3,5.3110806E1,2.6948994E1,2.4928244E2,1.0903972E0,1.3045042E1,9.53678E2,7.14833E2,3.1187756E1,2.1923048E1],"tree_param":{"num_deleted":"0","num_feature":"8","num_nodes":"21","size_leaf_vector":"1"}},{"base_weights":[-6.0685575E-3,-5.9430033E-2,5.1461816E-2,-4.9741898E-2,-8.065804E-3,-3.4969598E-2,5.0961435E-2,-4.9310412E-2,-7.78156E-3,-2.718453E-1,6.984346E-2,-2.3135282E-2,-5.637164E-3,-9.205013E-3,7.513451E-3],"categories":[],"categories_nodes":[],"categories_segments":[],"categories_sizes":[],"default_left":[0,0,0,0,0,0,0,0,0,0,0,0,0,0,0],"id":63,"left_children":[1,3,-1,-1,5,7,-1,-1,9,11,13,-1,-1,-1,-1],"loss_changes":[1.26177734E2,1.04343895E2,0E0,0E0,5.6965992E1,5.193024E1,0E0,0E0,4.0060734E1,1.3430164E1,3.0876656E1,0E0,0E0,0E0,0E0],"parents":[2147483647,0,0,1,1,4,4,5,5,8,8,9,9,10,10],"right_children":[2,4,-1,-1,6,8,-1,-1,10,12,14,-1,-1,-1,-1],"split_conditions":[6.8E0,5.7E0,5.1461816E-2,-4.9741898E-2,2.2E2,1.26E2,5.0961435E-2,-4.9310412E-2,1E0,5.6E1,2.664E1,-2.3135282E-2,-5.637164E-3,-9.205013E-3,7.513451E-3],"split_indices":[6,6,0,0,7,7,0,0,4,1,5,0,0,0,0],"split_type":[0,0,0,0,0,0,0,0,0,0,0,0,0,0,0],"sum_hessian":[2.281843E3,2.1708938E3,1.1094917E2,1.1204493E2,2.0588489E3,2.0072471E3,5.1601795E1,5.4796227E1,1.9524509E3,4.4299033E2,1.5094606E3,2.0052745E2,2.4246286E2,3.6275922E2,1.1467013E3],"tree_param":{"num_deleted":"0","num_feature":"8","num_nodes":"15","size_leaf_vector":"1"}},{"base_weights":[-5.8618113E-3,-5.6921877E-2,5.134365E-2,-4.9710702E-2,-7.7459617E-3,-3.3411738E-2,5.0819714E-2,-4.925623E-2,-7.4591623E-3,-7.290098E-2,2.948486E-1,-1.0285613E-2,5.24579E-3,7.5851115E-3,2.7597358E-2],"categories":[],"categories_nodes":[],"categories_segments":[],"categories_sizes":[],"default_left":[0,0,0,0,0,0,0,0,0,0,0,0,0,0,0],"id":64,"left_children":[1,3,-1,-1,5,7,-1,-1,9,11,13,-1,-1,-1,-1],"loss_changes":[1.1951203E2,9.9530266E1,0E0,0E0,5.3995E1,4.9482162E1,0E0,0E0,3.862897E1,3.7925884E1,1.2704126E1,0E0,0E0,0E0,0E0],"parents":[2147483647,0,0,1,1,4,4,5,5,8,8,9,9,10,10],"right_children":[2,4,-1,-1,6,8,-1,-1,10,12,14,-1,-1,-1,-1],"split_conditions":[6.8E0,5.7E0,5.134365E-2,-4.9710702E-2,2.2E2,1.26E2,5.0819714E-2,-4.925623E-2,1E0,2.918E1,1.59E2,-1.0285613E-2,5.24579E-3,7.5851115E-3,2.7597358E-2],"split_indices":[6,6,0,0,7,7,0,0,2,5,7,0,0,0,0],"split_type":[0,0,0,0,0,0,0,0,0,0,0,0,0,0,0],"sum_hessian":[2.264317E3,2.1585403E3,1.0577681E2,1.06646286E2,2.0518938E3,2.0026727E3,4.922121E1,5.2180775E1,1.950492E3,1.6040215E3,3.4647037E2,9.181207E2,6.859008E2,2.235777E2,1.22892685E2],"tree_param":{"num_deleted":"0","num_feature":"8","num_nodes":"15","size_leaf_vector":"1"}},{"base_weights":[-5.633066E-3,-5.449476E-2,5.1229484E-2,-4.9678847E-2,-7.4087796E-3,-3.1899925E-2,5.0680913E-2,-4.9200453E-2,-7.119458E-3,-1.1143192E-1,1.815706E-1,-1.1350839E-2,8.390653E-3,3.3730832E-3,1.9855687E-2],"categories":[],"categories_nodes":[],"categories_segments":[],"categories_sizes":[],"default_left":[0,0,0,0,0,0,0,0,0,0,0,0,0,0,0],"id":65,"left_children":[1,3,-1,-1,5,7,-1,-1,9,11,13,-1,-1,-1,-1],"loss_changes":[1.1321391E2,9.493258E1,0E0,0E0,5.1184807E1,4.714855E1,0E0,0E0,3.838103E1,4.056849E1,1.704815E1,0E0,0E0,0E0,0E0],"parents":[2147483647,0,0,1,1,4,4,5,5,8,8,9,9,10,10],"right_children":[2,4,-1,-1,6,8,-1,-1,10,12,14,-1,-1,-1,-1],"split_conditions":[6.8E0,5.7E0,5.1229484E-2,-4.9678847E-2,2.2E2,1.26E2,5.0680913E-2,-4.9200453E-2,6.6E1,3.387E1,1.59E2,-1.1350839E-2,8.390653E-3,3.3730832E-3,1.9855687E-2],"split_indices":[6,6,0,0,7,7,0,0,1,5,7,0,0,0,0],"split_type":[0,0,0,0,0,0,0,0,0,0,0,0,0,0,0],"sum_hessian":[2.2469463E3,2.1461072E3,1.0083908E2,1.01509125E2,2.0445981E3,1.9976497E3,4.6948418E1,4.969186E1,1.9479578E3,1.2547249E3,6.9323303E2,8.875414E2,3.671834E2,4.5412918E2,2.3910382E2],"tree_param":{"num_deleted":"0","num_feature":"8","num_nodes":"15","size_leaf_vector":"1"}},{"base_weights":[-5.422016E-3,-5.2170757E-2,5.111895E-2,-4.964627E-2,-7.0965826E-3,-3.0465987E-2,5.0544646E-2,-4.0411845E-1,2.9950712E-2,-4.5125344E-1,4.2112744E-1,-1.2610642E-2,5.0292784E-1,-4.801558E-2,-2.0019464E-2,-2.723965E-2,2.6515717E-2,-3.132372E-3,1.8289765E-2,3.5471454E-2,1.0219247E-2],"categories":[],"categories_nodes":[],"categories_segments":[],"categories_sizes":[],"default_left":[0,0,0,0,0,0,0,0,0,0,0,0,0,0,0,0,0,0,0,0,0],"id":66,"left_children":[1,3,-1,-1,5,7,-1,9,11,13,15,17,19,-1,-1,-1,-1,-1,-1,-1,-1],"loss_changes":[1.0726732E2,9.053549E1,0E0,0E0,4.852937E1,4.5022957E1,0E0,1.0987587E1,3.457579E1,6.4271507E0,1.925251E0,2.9872078E1,8.596695E0,0E0,0E0,0E0,0E0,0E0,0E0,0E0,0E0],"parents":[2147483647,0,0,1,1,4,4,5,5,7,7,8,8,9,9,10,10,11,11,12,12],"right_children":[2,4,-1,-1,6,8,-1,10,12,14,16,18,20,-1,-1,-1,-1,-1,-1,-1,-1],"split_conditions":[6.8E0,5.7E0,5.111895E-2,-4.964627E-2,2.2E2,3.9E1,5.0544646E-2,1E0,4.091E1,1.26E2,2.7E1,1E0,1.58E2,-4.801558E-2,-2.0019464E-2,-2.723965E-2,2.6515717E-2,-3.132372E-3,1.8289765E-2,3.5471454E-2,1.0219247E-2],"split_indices":[6,6,0,0,7,1,0,2,5,7,1,3,7,0,0,0,0,0,0,0,0],"split_type":[0,0,0,0,0,0,0,0,0,0,0,0,0,0,0,0,0,0,0,0,0],"sum_hessian":[2.2303745E3,2.134249E3,9.612544E1,9.6620895E1,2.0376282E3,1.9928496E3,4.477864E1,2.7658655E2,1.7162631E3,2.620712E2,1.4515353E1,1.5754663E3,1.4079668E2,2.2182688E1,2.398885E2,1.0689907E0,1.34463625E1,1.3922084E3,1.8325793E2,8.241451E1,5.8382168E1],"tree_param":{"num_deleted":"0","num_feature":"8","num_nodes":"21","size_leaf_vector":"1"}},{"base_weights":[-5.200788E-3,-4.9927156E-2,5.101175E-2,-4.961289E-2,-6.7788586E-3,-4.9116563E-2,1.6462404E-2,-5.8606546E-3,5.041058E-2,-5.470215E-1,2.791272E-2,-3.043524E-2,-1.04844365E-2,7.383644E-3,-6.1440314E-3],"categories":[],"categories_nodes":[],"categories_segments":[],"categories_sizes":[],"default_left":[0,0,0,0,0,0,0,0,0,0,0,0,0,0,0],"id":67,"left_children":[1,3,-1,-1,5,-1,7,9,-1,11,13,-1,-1,-1,-1],"loss_changes":[1.0164654E2,8.633559E1,0E0,0E0,4.6077694E1,0E0,4.395739E1,3.5519E1,0E0,2.2477837E0,3.3055252E1,0E0,0E0,0E0,0E0],"parents":[2147483647,0,0,1,1,4,4,6,6,7,7,9,9,10,10],"right_children":[2,4,-1,-1,6,-1,8,10,-1,12,14,-1,-1,-1,-1],"split_conditions":[6.8E0,5.7E0,5.101175E-2,-4.961289E-2,1.26E2,-4.9116563E-2,2.2E2,2.129E1,5.041058E-2,8E1,1.58E2,-3.043524E-2,-1.04844365E-2,7.383644E-3,-6.1440314E-3],"split_indices":[6,6,0,0,7,0,7,5,0,1,7,0,0,0,0],"split_type":[0,0,0,0,0,0,0,0,0,0,0,0,0,0,0],"sum_hessian":[2.2141482E3,2.1225215E3,9.1626595E1,9.1969574E1,2.030552E3,4.628934E1,1.9842627E3,1.9415548E3,4.2707928E1,1.1316009E2,1.8283947E3,9.498673E1,1.8173353E1,1.01906964E3,8.09325E2],"tree_param":{"num_deleted":"0","num_feature":"8","num_nodes":"15","size_leaf_vector":"1"}},{"base_weights":[-5.022805E-3,-4.7771707E-2,5.0907563E-2,-4.9578637E-2,-6.5119276E-3,-4.9056377E-2,1.565616E-2,-5.6269406E-3,5.0278347E-2,-2.5475863E-1,6.607087E-2,-3.570534E-2,-9.680884E-3,-2.3862168E-3,1.1181894E-2],"categories":[],"categories_nodes":[],"categories_segments":[],"categories_sizes":[],"default_left":[0,0,0,0,0,0,0,0,0,0,0,0,0,0,0],"id":68,"left_children":[1,3,-1,-1,5,-1,7,9,-1,11,13,-1,-1,-1,-1],"loss_changes":[9.633863E1,8.231896E1,0E0,0E0,4.3799957E1,0E0,4.1773193E1,3.4700645E1,0E0,1.2054546E1,2.7060503E1,0E0,0E0,0E0,0E0],"parents":[2147483647,0,0,1,1,4,4,6,6,7,7,9,9,10,10],"right_children":[2,4,-1,-1,6,-1,8,10,-1,12,14,-1,-1,-1,-1],"split_conditions":[6.8E0,5.7E0,5.0907563E-2,-4.9578637E-2,1.26E2,-4.9056377E-2,2.2E2,1E0,5.0278347E-2,2.5E1,1E0,-3.570534E-2,-9.680884E-3,-2.3862168E-3,1.1181894E-2],"split_indices":[6,6,0,0,7,0,7,4,0,1,0,0,0,0,0],"split_type":[0,0,0,0,0,0,0,0,0,0,0,0,0,0,0],"sum_hessian":[2.200439E3,2.1131052E3,8.733365E1,8.754378E1,2.0255614E3,4.408566E1,1.9814758E3,1.940744E3,4.073172E1,4.3313986E2,1.5076042E3,4.962566E1,3.835142E2,8.757981E2,6.318061E2],"tree_param":{"num_deleted":"0","num_feature":"8","num_nodes":"15","size_leaf_vector":"1"}},{"base_weights":[-4.852497E-3,-4.571466E-2,5.080613E-2,-4.954343E-2,-6.258547E-3,-4.899419E-2,1.4890705E-2,-5.406096E-3,5.0147623E-2,-1.0311392E-1,1.684355E-1,-1.0575429E-2,7.6141753E-3,2.8387816E-3,1.8935282E-2],"categories":[],"categories_nodes":[],"categories_segments":[],"categories_sizes":[],"default_left":[0,0,0,0,0,0,0,0,0,0,0,0,0,0,0],"id":69,"left_children":[1,3,-1,-1,5,-1,7,9,-1,11,13,-1,-1,-1,-1],"loss_changes":[9.132317E1,7.8480316E1,0E0,0E0,4.1636272E1,0E0,3.9699696E1,3.297765E1,0E0,3.4439774E1,1.6380589E1,0E0,0E0,0E0,0E0],"parents":[2147483647,0,0,1,1,4,4,6,6,7,7,9,9,10,10],"right_children":[2,4,-1,-1,6,-1,8,10,-1,12,14,-1,-1,-1,-1],"split_conditions":[6.8E0,5.7E0,5.080613E-2,-4.954343E-2,1.26E2,-4.899419E-2,2.2E2,6.6E1,5.0147623E-2,3.387E1,1.59E2,-1.0575429E-2,7.6141753E-3,2.8387816E-3,1.8935282E-2],"split_indices":[6,6,0,0,7,0,7,1,0,5,7,0,0,0,0],"split_type":[0,0,0,0,0,0,0,0,0,0,0,0,0,0,0],"sum_hessian":[2.1868801E3,2.103642E3,8.3238174E1,8.333261E1,2.0203093E3,4.198871E1,1.9783207E3,1.9394745E3,3.884623E1,1.241881E3,6.9759344E2,8.7197363E2,3.6990735E2,4.5646606E2,2.4112741E2],"tree_param":{"num_deleted":"0","num_feature":"8","num_nodes":"15","size_leaf_vector":"1"}},{"base_weights":[-4.666444E-3,-4.3736644E-2,5.070715E-2,-4.950719E-2,-5.993194E-3,-5.840285E-1,2.8057622E-2,-7.727251E-1,-4.7485253E-1,8.526257E-3,4.9998473E-2,-8.4092057E-1,-8.6808756E-2,-8.8284254E-2,-7.195069E-1,-3.0918663E-2,4.15874E-1,-4.5482583E-2,-1.930747E-2,1.5670814E-2,-2.7468203E-2,-2.5717368E-2,1.0355296E-2,-3.8537625E-2,1.2908618E-5,-7.6651904E-3,6.392305E-3,3.1219468E-2,5.8662635E-3],"categories":[],"categories_nodes":[],"categories_segments":[],"categories_sizes":[],"default_left":[0,0,0,0,0,0,0,0,0,0,0,0,0,0,0,0,0,0,0,0,0,0,0,0,0,0,0,0,0],"id":70,"left_children":[1,3,-1,-1,5,7,9,11,13,15,-1,17,19,21,23,25,27,